{"learner":{"attributes":{"best_iteration":"26","best_ntree_limit":"27","best_score":"0.03884061258924501"},"feature_names":[],"feature_types":[],"gradient_booster":{"model":{"gbtree_model_param":{"num_parallel_tree":"1","num_trees":"42","size_leaf_vector":"0"},"tree_info":[0,0,0,0,0,0,0,0,0,0,0,0,0,0,0,0,0,0,0,0,0,0,0,0,0,0,0,0,0,0,0,0,0,0,0,0,0,0,0,0,0,0],"trees":[{"base_weights":[-0E0,-1.9383415E0,1.9258235E0,1.6541353E-1,-1.9639097E0,8.141593E-1,1.9734385E0,-1.6078432E0,1.2093023E0,-1.9820027E0,-9.69697E-1,-3.265306E-1,1.6615385E0,1.9768541E0,3.0769232E-1,-1.8222222E0,-0E0,-2.2222222E-1,1.5E0,4E-1,-1.9835249E0,-1.1912569E0,1.3684211E0,-1.0724638E0,1.3548387E0,-4E-1,1.7590362E0,1.8106747E0,1.9936035E0,1.5E0,-1.1428572E0,-1.2727273E0,9.0909094E-1,1.7857143E0,4E-1,-1.4666667E0,-1.9880066E0,7.826087E-1,-1.4390244E0,6.2857145E-1,-1.588785E0,-2.5E-1,1.76E0,-1.2727273E0,1E0,1.2727273E0,1.8930482E0,1.8333334E0,-4.6153846E-1,1E0,-1E0,-1.6701031E0,6.666667E-1,-1.988389E0,-5E-1,-6.666667E-1,1.3333334E0,1E0,-1.525E0,-2E-1,1.3684211E0,-1.7142857E0,-1.5384616E-1,1.1111112E0,-1.2727273E0,5E-1,1.826087E0,-5E-1,1.4193548E0,1.8604652E0,1.0476191E0,-1E0,2.2222222E-1,-0E0,1.3333334E0,-1.7802198E0,-0E0,-0E0,1E0,-1.6462585E0,-1.1764706E-1,1.1111112E0,-9.3333334E-1,-1.8241758E0,-1.8181819E-1,-1.1111112E0,1E0,1.6595745E0,5.263158E-1,1.2542373E0,1.8922559E0,-1.1111112E0,1.4594594E0,-1.862069E0,-0E0,-1.8095238E0,-5.6E-1,-1.2E0,9.0909094E-1,-0E0,-1.2727273E0,-1.9036144E0,-6.666667E-1,6.666667E-1,1.7948718E0,1.0769231E0,-4E-1,1.8181819E0,-3.1578946E-1,1.8962796E0,5E-1,-0E0,1.6363636E0,-5E-1,-1.9036144E0,-0E0,-1.8688525E0,2.5E-1,-1.3846154E0,-0E0,-1E0,-0E0,1E0,-9.0909094E-1,3.3333334E-1,1.9003397E0,5E-1,-1.898305E0,-5E-1,-6.666667E-1,9.0909094E-1,-0E0,5E-1,1.9044368E0,5E-1,-5E-1,-1.9298246E0],"categories":[],"categories_nodes":[],"categories_segments":[],"categories_sizes":[],"default_left":[1,1,1,1,1,1,1,1,1,1,1,1,1,1,1,0,0,1,1,0,1,1,0,1,1,1,1,1,0,0,0,0,0,0,1,1,1,1,1,1,1,1,1,0,0,1,0,1,1,1,0,1,1,0,0,0,0,0,1,1,0,1,1,0,0,0,0,0,1,1,1,0,0,0,0,1,0,0,0,1,1,0,1,1,0,0,0,1,1,1,1,0,1,1,0,1,1,0,0,0,0,0,1,1,0,0,0,0,1,1,0,0,0,0,0,0,1,1,0,0,0,0,0,0,1,1,0,1,0,0,0,0,0,0,0,0,0],"id":0,"left_children":[1,3,5,7,9,11,13,15,17,19,21,23,25,27,29,-1,-1,31,33,-1,35,37,-1,39,41,43,45,47,-1,-1,-1,-1,-1,-1,49,51,53,55,57,59,61,63,65,-1,-1,67,-1,69,71,73,-1,75,77,-1,-1,-1,-1,-1,79,81,-1,83,85,-1,-1,-1,-1,-1,87,89,91,-1,-1,-1,-1,93,-1,-1,-1,95,97,-1,99,101,-1,-1,-1,103,105,107,109,-1,111,113,-1,115,117,-1,-1,-1,-1,-1,119,121,-1,-1,-1,-1,123,125,-1,-1,-1,-1,-1,-1,127,129,-1,-1,-1,-1,-1,-1,131,133,-1,135,-1,-1,-1,-1,-1,-1,-1,-1,-1],"loss_changes":[2.0165145E4,1.4513965E2,1.4182617E2,6.3492874E1,4.5926758E1,1.0976798E2,1.4170898E1,4.3947716E0,9.280361E0,1.0262695E1,2.7272781E1,6.2908283E1,1.3768311E1,3.6054688E0,1.2956043E1,0E0,0E0,6.5050507E0,4.942856E0,0E0,3.1308594E0,2.3500671E1,0E0,3.1299347E1,1.0518389E1,5.8545456E0,1.6475677E0,1.3627319E1,0E0,0E0,0E0,0E0,0E0,0E0,5.2E0,1.2505844E1,4.765625E-1,5.478261E0,1.0122566E1,5.637594E0,4.5535583E0,6.982323E0,1.2782669E-1,0E0,0E0,4.998535E0,0E0,3.295166E0,1.4188035E0,1.3333335E0,0E0,4.4597244E0,6.666666E-1,0E0,0E0,0E0,0E0,0E0,6.6324615E0,5.8444443E0,0E0,3.7942123E0,4.700855E0,0E0,0E0,0E0,0E0,0E0,2.451683E0,2.1845703E0,1.0956671E1,0E0,0E0,0E0,0E0,3.3148956E0,0E0,0E0,0E0,5.504219E0,5.813904E0,0E0,1.1878788E0,8.228073E-1,0E0,0E0,0E0,3.8188934E-1,2.8534415E0,1.3633928E1,2.9968262E-1,0E0,2.3882065E0,2.7897644E-1,0E0,3.3817291E0,4.520769E0,0E0,0E0,0E0,0E0,0E0,6.666666E-1,6.666666E-1,0E0,0E0,0E0,0E0,2.1323762E0,3.069458E-1,0E0,0E0,0E0,0E0,0E0,0E0,2.804947E-1,3.0227273E0,0E0,0E0,0E0,0E0,0E0,0E0,1.6666666E-1,3.1433105E-1,0E0,3.352661E-1,0E0,0E0,0E0,0E0,0E0,0E0,0E0,0E0,0E0],"parents":[2147483647,0,0,1,1,2,2,3,3,4,4,5,5,6,6,7,7,8,8,9,9,10,10,11,11,12,12,13,13,14,14,17,17,18,18,20,20,21,21,23,23,24,24,25,25,26,26,27,27,34,34,35,35,36,36,37,37,38,38,39,39,40,40,41,41,42,42,45,45,47,47,48,48,49,49,51,51,52,52,58,58,59,59,61,61,62,62,68,68,69,69,70,70,75,75,79,79,80,80,82,82,83,83,87,87,88,88,89,89,90,90,92,92,93,93,95,95,96,96,102,102,103,103,108,108,109,109,116,116,117,117,124,124,125,125,127,127],"right_children":[2,4,6,8,10,12,14,16,18,20,22,24,26,28,30,-1,-1,32,34,-1,36,38,-1,40,42,44,46,48,-1,-1,-1,-1,-1,-1,50,52,54,56,58,60,62,64,66,-1,-1,68,-1,70,72,74,-1,76,78,-1,-1,-1,-1,-1,80,82,-1,84,86,-1,-1,-1,-1,-1,88,90,92,-1,-1,-1,-1,94,-1,-1,-1,96,98,-1,100,102,-1,-1,-1,104,106,108,110,-1,112,114,-1,116,118,-1,-1,-1,-1,-1,120,122,-1,-1,-1,-1,124,126,-1,-1,-1,-1,-1,-1,128,130,-1,-1,-1,-1,-1,-1,132,134,-1,136,-1,-1,-1,-1,-1,-1,-1,-1,-1],"split_conditions":[6.576742E-1,9.07942E-1,7.232745E-1,5.0044775E-1,5.605873E-1,2.0457E-2,1.3486078E1,9.065E-1,8.6587226E-1,5.54E0,9.9070275E-1,9.650276E-1,7.348567E-1,7.3046297E-1,5.6335133E-1,-5.466667E-1,-0E0,7.0711064E-1,9.0575206E-1,1.20000005E-1,6.375E0,9.1678953E-1,4.1052634E-1,8.00042E0,2.8028283E-1,1.13125E1,6.5E0,1.2549919E1,5.9808105E-1,4.5000002E-1,-3.4285718E-1,-3.818182E-1,2.7272728E-1,5.357143E-1,6.4985535E1,1.11E1,6.55E1,9.082196E-1,-1.2265625E-1,8.5911965E-1,2.0055905E-2,8.824003E1,9.600614E-2,-3.818182E-1,3E-1,6.787162E-1,5.679145E-1,1.1469801E1,5.291785E-1,6.4695275E-1,-3E-1,1.8E1,1.7620617E-1,-5.965167E-1,-1.5E-1,-2.0000002E-1,4.0000004E-1,3E-1,9.694177E-1,5.67975E1,4.1052634E-1,4.399053E-1,9.4756174E-1,3.3333337E-1,-3.818182E-1,1.5E-1,5.478261E-1,-1.5E-1,5.3099346E-1,7.320236E-1,5.3846323E-1,-3E-1,6.666667E-2,-0E0,4.0000004E-1,9.7399306E-1,-0E0,-0E0,3E-1,2.4047226E-1,9E0,3.3333337E-1,7.735E0,8.1125E1,-5.454546E-2,-3.3333337E-1,3E-1,2.1061435E-2,7.504317E-2,4.1878548E1,6.8333334E-1,-3.3333337E-1,6.564324E-2,6.3249254E-1,-0E0,8.590599E-1,4.2886692E-1,-3.6E-1,2.7272728E-1,-0E0,-3.818182E-1,-5.710843E-1,8.8117146E-1,9.2126507E-1,5.3846157E-1,3.2307696E-1,-1.20000005E-1,5.4545456E-1,9E-2,1.57955E2,1.5E-1,-0E0,4.909091E-1,-1.5E-1,-5.710843E-1,-0E0,1.5542176E-1,3.212129E-1,-4.1538465E-1,-0E0,-3E-1,-0E0,3E-1,-2.7272728E-1,6E0,7.304611E-1,1.5E-1,5.117731E0,-1.5E-1,-2.0000002E-1,2.7272728E-1,-0E0,1.5E-1,5.713311E-1,1.5E-1,-1.5E-1,-5.789474E-1],"split_indices":[26,21,26,26,26,22,17,21,1,13,1,1,1,26,2,0,0,2,21,0,13,21,0,17,3,14,0,17,0,0,0,0,0,0,19,14,14,1,6,1,22,19,2,0,0,26,0,17,2,2,0,0,6,0,0,0,0,0,1,19,0,3,1,0,0,0,0,0,7,1,2,0,0,0,0,1,0,0,0,6,0,0,13,8,0,0,0,22,5,19,6,0,4,1,0,20,2,0,0,0,0,0,1,1,0,0,0,0,6,19,0,0,0,0,0,0,4,3,0,0,0,0,0,0,0,26,0,17,0,0,0,0,0,0,0,0,0],"split_type":[0,0,0,0,0,0,0,0,0,0,0,0,0,0,0,0,0,0,0,0,0,0,0,0,0,0,0,0,0,0,0,0,0,0,0,0,0,0,0,0,0,0,0,0,0,0,0,0,0,0,0,0,0,0,0,0,0,0,0,0,0,0,0,0,0,0,0,0,0,0,0,0,0,0,0,0,0,0,0,0,0,0,0,0,0,0,0,0,0,0,0,0,0,0,0,0,0,0,0,0,0,0,0,0,0,0,0,0,0,0,0,0,0,0,0,0,0,0,0,0,0,0,0,0,0,0,0,0,0,0,0,0,0,0,0,0,0],"sum_hessian":[5.4E3,2.69125E3,2.70875E3,3.225E1,2.659E3,1.12E2,2.59675E3,1.175E1,2.05E1,2.6105E3,4.85E1,4.8E1,6.4E1,2.59125E3,5.5E0,1.025E1,1.5E0,3.5E0,1.7E1,1.5E0,2.609E3,4.475E1,3.75E0,3.35E1,1.45E1,2.75E0,6.125E1,2.4725E2,2.344E3,3E0,2.5E0,1.75E0,1.75E0,1.3E1,4E0,2.525E1,2.58375E3,4.75E0,4E1,7.75E0,2.575E1,3E0,1.15E1,1.75E0,1E0,1.55E1,4.575E1,2.45E2,2.25E0,3E0,1E0,2.325E1,2E0,2.58275E3,1E0,1.25E0,3.5E0,1E0,3.9E1,4E0,3.75E0,2.35E1,2.25E0,1.25E0,1.75E0,1E0,1.05E1,1E0,1.45E1,2.355E2,9.5E0,1E0,1.25E0,1E0,2E0,2.175E1,1.5E0,1E0,1E0,3.575E1,3.25E0,1.25E0,2.75E0,2.175E1,1.75E0,1.25E0,1E0,1.075E1,3.75E0,1.375E1,2.2175E2,1.25E0,8.25E0,2.075E1,1E0,3.05E1,5.25E0,1.5E0,1.75E0,1E0,1.75E0,1.975E1,2E0,2E0,8.75E0,2.25E0,1.5E0,1E1,3.75E0,2.2075E2,1E0,1E0,7.25E0,1E0,1.975E1,1E0,2.95E1,3E0,2.25E0,1E0,1E0,1E0,1E0,1.75E0,2E0,2.1975E2,1E0,2.85E1,1E0,1.25E0,1.75E0,1E0,1E0,2.1875E2,1E0,1E0,2.75E1],"tree_param":{"num_deleted":"0","num_feature":"27","num_nodes":"137","size_leaf_vector":"0"}},{"base_weights":[3.5112764E-4,-1.4896036E0,1.4971702E0,2.3972271E-1,-1.5131359E0,7.309176E-1,1.5260321E0,-1.2505127E0,1.0019907E0,-1.5329845E0,-6.7305064E-1,-2.4240543E-1,1.3258964E0,1.5279688E0,-2.7385694E-1,-1.4288042E0,-0E0,-2.7436012E-1,1.1638068E0,-4.746484E-1,-1.5358168E0,-9.324555E-1,6.58008E-1,-8.1973E-1,1.2846875E0,2.7012018E-2,1.3711916E0,1.4026783E0,1.5454412E0,5.206999E-1,-9.374901E-1,5.673119E-1,-9.912601E-1,-7.410547E-2,1.3846334E0,-1.2568768E0,4.3969837E-1,-1.0415713E0,-1.5393413E0,6.0988116E-1,-1.1420294E0,9.952707E-1,-9.951603E-1,2.4285741E-1,-1.3734725E0,1.4100164E0,1.8655209E-1,1.427897E0,-4.257085E-1,9.5421255E-1,1.5468752E0,-8.537685E-1,6.7740345E-1,1.4649335E0,1.5966974E-1,-3.580972E-1,1.0676955E0,-1.4617258E0,7.4027486E-2,-1.5438372E0,-1.1622443E0,-6.891693E-1,1.1280075E0,-1.3295932E0,-1.727674E-1,4.4741982E-1,1.3231204E0,1.1543891E0,-4.0904665E-1,-1.4914119E0,-4.2802802E-1,1.4336573E0,5.879625E-1,1.4934162E0,1.2149148E0,-1.1244414E0,9.410384E-1,-1.0542299E-1,1.1572095E0,-1.0454854E0,8.4388244E-1,-1.4864628E0,-1.4189519E-1,5.843071E-1,-1.4123616E0,-8.396558E-1,6.1463064E-1,1.0741117E0,-2.3129061E-1,-9.930879E-1,6.508339E-1,-8.947142E-1,2.3476559E-1,4.356417E-1,1.4484146E0,1.4976203E0,3.6087316E-1,6.450654E-1,1.3872231E0,1.2042985E0,-6.674308E-2,9.5763505E-1,-9.423684E-1,-1.4541428E0,-1.5000722E-1,1.7764914E-1,-1.2315106E0,1.2039661E0,-5.3217727E-1,-1.4381793E-1,-1.2549058E0,1.4732361E0,6.138559E-1,1.501152E0,4.5473796E-1,1.2168828E0,-2.2852181E-1,5.9410626E-1,1.4275945E0,1.5692606E0,-3.6162072E-1,2.2849008E-2,-1.2010889E0,-1.8608822E-1,-1.496585E0,4.544192E-1,1.3144528E0,-9.0188324E-1,7.443228E-1,-4.431242E-1,1.0943253E0,1.442332E0,4.1240856E-1,-1.5211278E0,-4.583186E-1,1.395641E0,3.68571E-1,-1.6371584E0,1.903713E-1,5.2956557E-3,1.0439587E0,4.1740683E-1,1.4576001E0],"categories":[],"categories_nodes":[],"categories_segments":[],"categories_sizes":[],"default_left":[1,1,1,1,1,1,1,1,1,1,1,1,1,1,1,0,0,1,1,1,1,1,1,1,0,0,1,1,1,0,0,0,0,1,1,0,1,1,1,1,1,1,0,1,1,1,0,1,1,1,0,0,0,0,0,0,0,0,1,0,1,0,0,1,1,1,0,0,1,0,1,1,0,1,1,0,0,0,0,0,1,0,1,0,1,1,1,0,0,1,0,0,0,0,1,1,0,1,1,0,0,1,1,1,0,0,0,0,0,0,0,0,0,0,0,1,1,1,1,0,0,0,0,0,1,0,1,1,1,0,0,1,0,0,0,0,0,0,0,0,0,0,0],"id":1,"left_children":[1,3,5,7,9,11,13,15,17,19,21,23,25,27,29,-1,-1,31,33,35,37,39,41,43,-1,-1,45,47,49,-1,-1,-1,-1,51,53,-1,55,57,59,61,63,65,-1,67,69,71,-1,73,75,77,-1,-1,-1,-1,-1,-1,-1,-1,79,-1,81,-1,-1,83,85,87,-1,-1,89,-1,91,93,-1,95,97,-1,-1,-1,-1,-1,99,-1,101,-1,103,105,107,-1,-1,109,-1,-1,-1,-1,111,113,-1,115,117,-1,-1,119,121,123,-1,-1,-1,-1,-1,-1,-1,-1,-1,-1,-1,125,127,129,131,-1,-1,-1,-1,-1,133,-1,135,137,139,-1,-1,141,-1,-1,-1,-1,-1,-1,-1,-1,-1,-1,-1],"loss_changes":[1.1052849E4,1.01436035E2,5.3561523E1,4.011074E1,3.982959E1,5.34034E1,8.719727E0,2.680107E0,5.1080494E0,6.444336E0,2.0758736E1,3.245662E1,3.3189163E0,3.0410156E0,2.2850666E0,0E0,0E0,2.6247797E0,5.779873E0,6.156202E0,2.553711E0,1.661309E1,6.622947E0,1.5901699E1,0E0,0E0,2.2711792E0,1.453363E1,2.861328E-1,0E0,0E0,0E0,0E0,2.9766033E0,1.5046959E0,0E0,2.5632985E0,9.477703E0,2.2192383E0,5.1809406E0,7.7147446E0,1.0048418E0,0E0,6.3635335E0,1.3179016E0,1.9093323E-1,0E0,2.3460083E0,5.7178526E0,1.765048E0,0E0,0E0,0E0,0E0,0E0,0E0,0E0,0E0,6.415881E0,0E0,1.03544235E1,0E0,0E0,6.601639E0,4.8401203E0,2.3068223E0,0E0,0E0,4.6814775E0,0E0,1.2457445E0,1.2038422E-1,0E0,5.2438354E-1,6.5185547E0,0E0,0E0,0E0,0E0,0E0,1.510603E0,0E0,8.653547E0,0E0,1.6408157E0,2.1645648E0,3.5830464E0,0E0,0E0,8.4205294E-1,0E0,0E0,0E0,0E0,1.2813568E-1,1.368103E-1,0E0,9.968179E0,9.8023224E-1,0E0,0E0,3.9614382E0,1.4259853E0,1.5514374E0,0E0,0E0,0E0,0E0,0E0,0E0,0E0,0E0,0E0,0E0,0E0,2.866516E-1,6.249975E0,2.808634E0,2.0744324E-1,0E0,0E0,0E0,0E0,0E0,1.3759613E-1,0E0,2.539997E-1,4.7165713E0,8.871505E-1,0E0,0E0,2.1244812E-1,0E0,0E0,0E0,0E0,0E0,0E0,0E0,0E0,0E0,0E0,0E0],"parents":[2147483647,0,0,1,1,2,2,3,3,4,4,5,5,6,6,7,7,8,8,9,9,10,10,11,11,12,12,13,13,14,14,17,17,18,18,19,19,20,20,21,21,22,22,23,23,26,26,27,27,28,28,33,33,34,34,36,36,37,37,38,38,39,39,40,40,41,41,43,43,44,44,45,45,47,47,48,48,49,49,58,58,60,60,63,63,64,64,65,65,68,68,70,70,71,71,73,73,74,74,80,80,82,82,84,84,85,85,86,86,89,89,94,94,95,95,97,97,98,98,101,101,102,102,103,103,115,115,116,116,117,117,118,118,124,124,126,126,127,127,128,128,131,131],"right_children":[2,4,6,8,10,12,14,16,18,20,22,24,26,28,30,-1,-1,32,34,36,38,40,42,44,-1,-1,46,48,50,-1,-1,-1,-1,52,54,-1,56,58,60,62,64,66,-1,68,70,72,-1,74,76,78,-1,-1,-1,-1,-1,-1,-1,-1,80,-1,82,-1,-1,84,86,88,-1,-1,90,-1,92,94,-1,96,98,-1,-1,-1,-1,-1,100,-1,102,-1,104,106,108,-1,-1,110,-1,-1,-1,-1,112,114,-1,116,118,-1,-1,120,122,124,-1,-1,-1,-1,-1,-1,-1,-1,-1,-1,-1,126,128,130,132,-1,-1,-1,-1,-1,134,-1,136,138,140,-1,-1,142,-1,-1,-1,-1,-1,-1,-1,-1,-1,-1,-1],"split_conditions":[6.7923784E-1,9.07942E-1,7.232745E-1,5.0044775E-1,5.605873E-1,2.008567E-2,1.4023947E1,9.065E-1,8.506427E-1,4.13E0,9.6801853E-1,9.699046E-1,7.277036E-1,7.307235E-1,6.0197514E-1,-4.2864126E-1,-0E0,4.6193336E1,5.069283E-1,5.048775E-1,8.490434E-1,9.1678953E-1,1.1659773E1,9.051058E0,3.854063E-1,8.103606E-3,8.643591E1,1.2418836E1,6.0661763E-2,1.5620998E-1,-2.8124705E-1,1.7019357E-1,-2.9737803E-1,6.971998E-1,9.898078E0,-3.7706307E-1,4.9115613E-2,5.0065136E-1,9.917179E-1,9.082196E-1,2.3957515E-1,3.552965E-1,-2.985481E-1,9.1E0,1.55E1,9.002063E-1,5.596563E-2,9.575E0,3.394583E-1,8.32578E-1,4.640626E-1,-2.5613058E-1,2.0322104E-1,4.3948007E-1,4.7900926E-2,-1.0742916E-1,3.2030866E-1,-4.3851778E-1,9.927977E0,-4.631512E-1,5.005418E-1,-2.067508E-1,3.3840227E-1,-9.5E-2,9.100007E-1,9.485528E-2,3.9693612E-1,3.4631675E-1,9.345754E-1,-4.474236E-1,2.4837881E-1,2.925E1,1.7638876E-1,7.307204E-1,9.362155E-1,-3.3733243E-1,2.8231153E-1,-3.16269E-2,3.4716287E-1,-3.1364563E-1,6.7847395E-1,-4.4593886E-1,6.04E1,1.7529213E-1,1.5542176E-1,8.4E0,9.312092E0,3.2223353E-1,-6.938718E-2,8.495E0,1.9525018E-1,-2.6841426E-1,7.042968E-2,1.3069251E-1,3.1657624E-1,1.1877125E1,1.0826195E-1,6.966464E1,2.894679E-1,3.6128956E-1,-2.0022925E-2,1.4015E1,3.9348222E-2,8.590599E-1,-4.5002166E-2,5.3294744E-2,-3.694532E-1,3.6118984E-1,-1.5965319E-1,-4.314538E-2,-3.7647176E-1,4.4197085E-1,1.8415678E-1,4.5034564E-1,1.364214E-1,7.27803E-1,1.385E1,5.713546E-1,5.375E-1,4.707782E-1,-1.0848622E-1,6.8547027E-3,-3.6032668E-1,-5.5826467E-2,2.4311269E-2,1.3632576E-1,1.023114E1,7.292094E-1,4.622E1,-1.3293727E-1,3.2829762E-1,9.684999E0,1.23722576E-1,-4.5633838E-1,-1.3749558E-1,4.1869232E-1,1.1057131E-1,-4.9114755E-1,5.7111394E-2,1.5886967E-3,3.131876E-1,1.2522206E-1,4.3728006E-1],"split_indices":[26,21,26,26,26,22,17,21,1,11,1,1,1,26,2,0,0,19,26,26,20,21,17,17,0,0,19,17,2,0,0,0,0,2,17,0,5,26,1,1,6,3,0,10,0,20,0,11,3,1,0,0,0,0,0,0,0,0,17,0,26,0,0,6,1,5,0,0,1,0,3,8,0,26,1,0,0,0,0,0,2,0,8,0,4,10,17,0,0,11,0,0,0,0,6,17,0,19,3,0,0,15,4,20,0,0,0,0,0,0,0,0,0,0,0,26,12,2,6,0,0,0,0,0,22,0,17,26,8,0,0,11,0,0,0,0,0,0,0,0,0,0,0],"split_type":[0,0,0,0,0,0,0,0,0,0,0,0,0,0,0,0,0,0,0,0,0,0,0,0,0,0,0,0,0,0,0,0,0,0,0,0,0,0,0,0,0,0,0,0,0,0,0,0,0,0,0,0,0,0,0,0,0,0,0,0,0,0,0,0,0,0,0,0,0,0,0,0,0,0,0,0,0,0,0,0,0,0,0,0,0,0,0,0,0,0,0,0,0,0,0,0,0,0,0,0,0,0,0,0,0,0,0,0,0,0,0,0,0,0,0,0,0,0,0,0,0,0,0,0,0,0,0,0,0,0,0,0,0,0,0,0,0,0,0,0,0,0,0],"sum_hessian":[4.9540063E3,2.4826982E3,2.471308E3,3.3207E1,2.4494915E3,9.066187E1,2.3806462E3,1.10208E1,2.2186201E1,2.3921475E3,5.7343933E1,3.4619915E1,5.604196E1,2.3782385E3,2.4078035E0,9.5208E0,1.5E0,2.418038E0,1.9768162E1,6.834642E0,2.3853127E3,4.824175E1,9.102183E0,2.545844E1,9.161472E0,1.9422547E0,5.409971E1,3.010154E2,2.077223E3,1.1938305E0,1.2139732E0,1.2082083E0,1.2098297E0,3.0931218E0,1.6675041E1,3.481545E0,3.353097E0,1.898937E1,2.3663235E3,5.5424666E0,4.2699284E1,7.8904204E0,1.2117625E0,8.914211E0,1.654423E1,5.2198727E1,1.9009823E0,2.971361E2,3.8793242E0,6.638447E0,2.0705845E3,1.4513385E0,1.6417831E0,1.5465342E1,1.2096989E0,1.6661856E0,1.6869113E0,1.3568839E1,5.420531E0,2.3353862E3,3.0937227E1,1.486182E0,4.056285E0,3.5464684E1,7.2345986E0,3.8393729E0,4.051048E0,3.3955505E0,5.5186605E0,1.4195893E1,2.3483372E0,5.0016346E1,2.1823812E0,2.2263536E2,7.450073E1,2.6842964E0,1.1950277E0,1.1445599E0,5.493887E0,2.062802E0,3.3577285E0,2.3130602E1,7.8066254E0,1.2189386E0,3.4245747E1,3.8811138E0,3.353485E0,1.6932873E0,2.1460855E0,3.5986588E0,1.9200017E0,1.1727011E0,1.175636E0,1.1735126E0,4.884283E1,2.214908E2,1.1445599E0,1.8398335E1,5.6102398E1,2.1745632E0,1.1831653E0,3.206222E0,4.6004033E0,3.3001537E1,1.2442101E0,1.2312579E0,2.6498559E0,2.1822188E0,1.1712661E0,1.2130717E0,2.385587E0,4.6688915E1,2.1539168E0,2.2030533E2,1.1854808E0,1.0882251E1,7.516085E0,3.4786465E0,5.2623753E1,2.0611427E0,1.1450793E0,1.1651655E0,3.435238E0,1.2431822E0,3.1758354E1,1.8764035E0,9.005847E0,4.4848237E0,3.0312612E0,1.168936E0,2.3097105E0,5.145601E1,1.1677419E0,3.0570652E1,1.1877029E0,7.856045E0,1.1498023E0,2.382268E0,2.1025558E0,1.1680461E0,1.8632152E0,1.1712369E0,5.0284775E1],"tree_param":{"num_deleted":"0","num_feature":"27","num_nodes":"143","size_leaf_vector":"0"}},{"base_weights":[5.339526E-4,-1.294964E0,1.2847487E0,8.91612E-2,-1.313423E0,6.265993E-1,1.3258144E0,-1.0538982E0,7.4239403E-1,-1.3286943E0,-6.5598893E-1,9.914206E-3,1.1072035E0,1.32927E0,4.509375E-1,-1.2266191E0,-0E0,-2.3251396E-1,9.6479577E-1,-8.3763945E-1,-1.3337412E0,-1.0140402E0,2.585003E-1,-6.710734E-1,9.171567E-1,-3.114019E-1,1.1767023E0,3.4662887E-1,1.3304831E0,-1.0047805E0,9.8678017E-1,7.015425E-1,-1.063436E0,2.3209838E-2,1.1722773E0,-9.9877965E-1,6.171936E-1,-1.3377888E0,-1.0018202E0,-1.2459157E0,1.6833343E-1,-4.609376E-1,8.8754416E-1,-9.6354544E-1,8.158464E-1,1.7166594E-1,1.141801E0,-9.255979E-1,6.36548E-1,8.218585E-1,1.2933006E0,-4.92997E-1,8.5062414E-1,1.2225229E0,1.3411374E0,1.1808146E0,1.4273809E-2,5.8750147E-1,-6.383646E-1,1.2889212E0,-2.5410317E-2,-1.166755E0,1.436808E-1,-5.3488934E-1,-1.3386396E0,-1.2864956E0,-1.7653309E-1,-6.811167E-2,-1.2902919E0,-5.869696E-1,7.986026E-1,-1.0955222E0,1.563323E-1,2.0510347E-1,1.2575966E0,-1.0561868E0,4.6585426E-1,-2.4236396E-1,1.1226463E0,1.1110712E0,-6.8102753E-1,3.7736276E-1,1.2253073E0,9.5653933E-1,-4.3717846E-1,4.6031338E-1,1.3090545E0,1.2383803E0,2.1001254E-1,1.341673E0,3.0039838E-1,-1.2274458E0,-1.58855E-1,-7.9055434E-1,1.0780929E0,-8.7486774E-1,1.5076296E-1,-1.3389683E0,-4.0716112E-1,7.196748E-1,-9.318135E-1,-1.3313488E0,-1.4974347E-1,-9.519612E-1,1.1080486E-1,-5.282155E-2,1.1319641E0,9.619172E-1,-6.127077E-1,9.157522E-1,-6.1139137E-1,2.6929456E-1,-1.1760325E0,-1.383476E-1,-9.7355956E-1,7.73229E-1,-2.3581478E-1,1.2709645E0,3.718215E-1,2.8941834E-1,1.1980811E0,1.3032933E0,9.6491045E-1,-5.369509E-1,8.9739203E-1,1.3427653E0,6.1420983E-1,-2.766302E-1,-1.3065091E0,1.1670433E0,-3.1021103E-1,-1.0587754E0,-2.2976302E-1,-1.2258215E0,-7.189308E-2,7.523217E-1,-7.543684E-1,1.3295611E0,4.6449006E-1,9.9422365E-1,1.3329139E0,6.39488E-2,1.1427609E0,-2.929383E-1,9.600021E-1,-4.403918E-1,-1.3180747E0,1.0060802E0,-5.524285E-2,7.958365E-1,-1.3695739E-1,1.1040406E0,-1.5636706E-1,-8.690322E-1,1.0345324E0,-1.6006838E-1,1.1924762E0,-9.2126757E-1,4.5944694E-1,-2.440829E-1,-1.3790745E0,1.1500381E0,2.3673691E-1,7.326327E-1,-1.6826366E0,7.0857494E-3,1.2361583E0,2.5413436E-1,1.2621831E0,1.2911987E0,4.0061238E-1,4.4520998E-1,1.3246849E0],"categories":[],"categories_nodes":[],"categories_segments":[],"categories_sizes":[],"default_left":[1,1,1,1,1,1,1,1,1,1,1,1,1,1,1,0,0,1,1,1,1,1,1,1,1,1,1,1,1,0,1,0,0,1,1,1,0,1,1,1,1,1,1,1,1,1,1,0,0,1,1,0,0,1,1,0,0,0,0,0,0,1,1,1,1,0,1,0,1,1,1,0,1,1,0,1,0,0,0,0,1,1,1,1,0,0,0,1,1,1,0,1,0,0,0,0,0,0,0,1,1,0,0,0,0,0,0,0,0,0,0,0,1,0,0,0,0,0,0,1,1,1,1,0,0,0,1,0,0,0,0,0,0,1,0,1,0,0,1,1,0,1,1,0,0,1,1,0,0,0,0,1,0,1,0,0,1,0,0,0,0,0,0,0,0,0,1,0,1,1,0,0,0],"id":2,"left_children":[1,3,5,7,9,11,13,15,17,19,21,23,25,27,29,-1,-1,31,33,35,37,39,41,43,45,47,49,51,53,-1,55,-1,-1,57,59,61,-1,63,65,67,69,71,73,75,77,79,81,-1,-1,83,85,-1,-1,87,89,-1,-1,-1,-1,-1,-1,91,93,95,97,-1,99,-1,101,103,105,-1,107,109,-1,111,-1,-1,-1,-1,113,115,117,119,-1,-1,-1,121,123,125,-1,127,-1,-1,-1,-1,-1,-1,-1,129,131,-1,-1,-1,-1,-1,-1,-1,-1,-1,-1,-1,133,-1,-1,-1,-1,-1,-1,135,137,139,141,-1,-1,-1,143,-1,-1,-1,-1,-1,-1,145,-1,147,-1,-1,149,151,-1,153,155,-1,-1,157,159,-1,-1,-1,-1,161,-1,163,-1,-1,165,-1,-1,-1,-1,-1,-1,-1,-1,-1,167,-1,169,171,-1,-1,-1],"loss_changes":[6.912218E3,5.2961426E1,5.5560303E1,2.1806494E1,1.9620605E1,3.686952E1,5.335449E0,1.9390974E0,4.2363873E0,3.8242188E0,1.6080921E1,3.491133E1,7.260414E0,1.8688965E0,8.196311E0,0E0,0E0,4.0391126E0,2.954215E0,6.0016594E0,1.3088379E0,9.783855E0,6.921459E0,1.4827131E1,3.8607998E0,2.950954E0,1.7037201E0,2.0115407E0,6.057129E-1,0E0,1.3523297E0,0E0,0E0,1.78463E0,1.7769756E0,4.209671E0,0E0,6.1279297E-1,6.2897034E0,1.4443016E0,3.613762E0,3.0585282E0,1.7672191E0,4.1254845E0,2.1708202E0,6.1926384E0,7.145977E-1,0E0,0E0,3.6876879E0,3.501892E-2,0E0,0E0,2.7366333E0,5.817871E-1,0E0,0E0,0E0,0E0,0E0,0E0,9.349766E-1,3.9864163E0,1.0000852E0,4.9316406E-2,0E0,6.2706184E0,0E0,1.1209183E0,1.017639E0,1.2022126E0,0E0,3.4463563E0,2.8891957E0,0E0,4.458725E0,0E0,0E0,0E0,0E0,5.2846134E-1,9.738536E-1,1.5781212E-1,2.5105171E0,0E0,0E0,0E0,2.0009766E0,2.5778768E0,5.776367E-1,0E0,9.371929E-1,0E0,0E0,0E0,0E0,0E0,0E0,0E0,2.3652403E0,1.9574738E-1,0E0,0E0,0E0,0E0,0E0,0E0,0E0,0E0,0E0,0E0,0E0,1.2366753E0,0E0,0E0,0E0,0E0,0E0,0E0,3.4820263E0,6.0736084E-1,6.7749023E-3,6.1865005E0,0E0,0E0,0E0,1.6894829E0,0E0,0E0,0E0,0E0,0E0,0E0,1.0858345E0,0E0,1.014523E0,0E0,0E0,7.999556E-1,2.2777061E0,0E0,7.6900015E0,2.300148E0,0E0,0E0,2.119042E0,9.787483E-1,0E0,0E0,0E0,0E0,3.394165E-1,0E0,6.9237885E0,0E0,0E0,1.6216316E0,0E0,0E0,0E0,0E0,0E0,0E0,0E0,0E0,0E0,4.5518112E-1,0E0,2.1585464E-1,2.0119095E-1,0E0,0E0,0E0],"parents":[2147483647,0,0,1,1,2,2,3,3,4,4,5,5,6,6,7,7,8,8,9,9,10,10,11,11,12,12,13,13,14,14,17,17,18,18,19,19,20,20,21,21,22,22,23,23,24,24,25,25,26,26,27,27,28,28,30,30,33,33,34,34,35,35,37,37,38,38,39,39,40,40,41,41,42,42,43,43,44,44,45,45,46,46,49,49,50,50,53,53,54,54,61,61,62,62,63,63,64,64,66,66,68,68,69,69,70,70,72,72,73,73,75,75,80,80,81,81,82,82,83,83,87,87,88,88,89,89,91,91,99,99,100,100,112,112,119,119,120,120,121,121,122,122,126,126,133,133,135,135,138,138,139,139,141,141,142,142,145,145,146,146,151,151,153,153,156,156,166,166,168,168,169,169],"right_children":[2,4,6,8,10,12,14,16,18,20,22,24,26,28,30,-1,-1,32,34,36,38,40,42,44,46,48,50,52,54,-1,56,-1,-1,58,60,62,-1,64,66,68,70,72,74,76,78,80,82,-1,-1,84,86,-1,-1,88,90,-1,-1,-1,-1,-1,-1,92,94,96,98,-1,100,-1,102,104,106,-1,108,110,-1,112,-1,-1,-1,-1,114,116,118,120,-1,-1,-1,122,124,126,-1,128,-1,-1,-1,-1,-1,-1,-1,130,132,-1,-1,-1,-1,-1,-1,-1,-1,-1,-1,-1,134,-1,-1,-1,-1,-1,-1,136,138,140,142,-1,-1,-1,144,-1,-1,-1,-1,-1,-1,146,-1,148,-1,-1,150,152,-1,154,156,-1,-1,158,160,-1,-1,-1,-1,162,-1,164,-1,-1,166,-1,-1,-1,-1,-1,-1,-1,-1,-1,168,-1,170,172,-1,-1,-1],"split_conditions":[6.576742E-1,9.07942E-1,7.262416E-1,5.0044775E-1,5.5345E-1,2.0457E-2,1.3188268E1,9.065E-1,8.6587226E-1,6.375E0,2.0376284E-2,3.4895855E-1,7.348567E-1,1.5795365E-1,7.309427E-1,-3.6798576E-1,-0E0,8.250661E-1,5.074363E-1,1.11E1,9.917179E-1,4.0877798E-1,9.2876816E-1,9.7124714E-1,8.8856673E-1,1.1E1,6.5E0,7.9095E1,7.3056155E-1,-3.0143416E-1,2.25E1,2.1046276E-1,-3.1903082E-1,6.49E0,6.4985535E1,2.389178E-2,1.8515807E-1,4.13E0,5.005418E-1,1.53370155E-2,5.803E1,4.7234243E-1,9E0,2.35E1,2.675981E-1,5.6815E1,4.528344E0,-2.7767938E-1,1.909644E-1,1.0211743E1,4.0916667E0,-1.478991E-1,2.5518724E-1,1.204381E1,9.1388893E-1,3.542444E-1,4.282143E-3,1.7625044E-1,-1.915094E-1,3.866764E-1,-7.6230955E-3,1.8E1,5.0272286E-1,7.792015E-1,6.4E1,-3.859487E-1,6.04E1,-2.0433502E-2,3.216321E-1,6.073611E-1,9.172454E-1,-3.2865667E-1,5.72192E1,7.6537476E0,3.77279E-1,7.5E0,1.3975628E-1,-7.270919E-2,3.367939E-1,3.333214E-1,1.1213819E-1,3.666667E-2,7.258252E-1,7.791667E0,-1.3115354E-1,1.3809402E-1,3.9271638E-1,1.215E1,9.7784984E-1,9.8125E-1,9.011952E-2,3.135E0,-4.7656503E-2,-2.3716632E-1,3.234279E-1,-2.6246032E-1,4.522889E-2,-4.016905E-1,-1.2214834E-1,1.4015E1,2.3814934E-1,-3.9940464E-1,-4.492304E-2,-2.8558838E-1,3.3241462E-2,-1.5846467E-2,3.3958924E-1,2.8857517E-1,-1.838123E-1,2.7472568E-1,-1.8341741E-1,8.0788374E-2,6.120198E-1,-4.150428E-2,-2.920679E-1,2.3196872E-1,-7.074444E-2,3.8128936E-1,1.1154645E-1,8.41E0,8.225798E0,8.3531046E-1,1.195E1,-1.6108528E-1,2.692176E-1,4.0282962E-1,9.8763466E1,-8.298906E-2,-3.9195275E-1,3.50113E-1,-9.306331E-2,-3.1763265E-1,-6.8928905E-2,9.26566E-1,-2.1567926E-2,7.990051E-2,-2.2631054E-1,3.9886835E-1,4E0,9.217862E1,3.9987418E-1,9.5903325E-1,1.5357126E-2,-8.788149E-2,2.8800064E-1,9.245578E-1,8.9E0,3.0182406E-1,-1.6572855E-2,2.3875096E-1,-4.1087218E-2,8.9880955E-1,-4.6910122E-2,8.65E0,3.1035975E-1,-4.8020516E-2,7.391847E-1,-2.7638027E-1,1.3783409E-1,-7.322487E-2,-4.1372237E-1,3.4501144E-1,7.102107E-2,2.1978982E-1,-5.04791E-1,2.125725E-3,3.4380203E1,7.624031E-2,2.95E1,1.235E1,1.2018372E-1,1.33563E-1,3.9740548E-1],"split_indices":[26,21,26,26,26,22,17,21,1,13,22,3,1,3,26,0,0,20,26,14,1,3,1,1,1,14,0,8,26,0,0,0,0,13,19,22,0,11,26,4,8,7,0,0,3,19,17,0,0,17,14,0,0,17,6,0,0,0,0,0,0,0,26,1,14,0,8,0,6,26,1,0,19,17,0,10,0,0,0,0,5,5,26,14,0,0,0,10,1,7,0,11,0,0,0,0,0,0,0,15,6,0,0,0,0,0,0,0,0,0,0,0,7,0,0,0,0,0,0,15,17,1,12,0,0,0,23,0,0,0,0,0,0,21,0,5,0,0,0,19,0,1,22,0,0,21,10,0,0,0,0,16,0,11,0,0,1,0,0,0,0,0,0,0,0,0,19,0,0,12,0,0,0],"split_type":[0,0,0,0,0,0,0,0,0,0,0,0,0,0,0,0,0,0,0,0,0,0,0,0,0,0,0,0,0,0,0,0,0,0,0,0,0,0,0,0,0,0,0,0,0,0,0,0,0,0,0,0,0,0,0,0,0,0,0,0,0,0,0,0,0,0,0,0,0,0,0,0,0,0,0,0,0,0,0,0,0,0,0,0,0,0,0,0,0,0,0,0,0,0,0,0,0,0,0,0,0,0,0,0,0,0,0,0,0,0,0,0,0,0,0,0,0,0,0,0,0,0,0,0,0,0,0,0,0,0,0,0,0,0,0,0,0,0,0,0,0,0,0,0,0,0,0,0,0,0,0,0,0,0,0,0,0,0,0,0,0,0,0,0,0,0,0,0,0,0,0,0,0],"sum_hessian":[4.1527324E3,2.0672803E3,2.085452E3,2.7156607E1,2.0401237E3,1.23435905E2,1.962016E3,9.6526165E0,1.750399E1,1.9928124E3,4.7311375E1,5.4510994E1,6.892491E1,1.9537795E3,8.236517E0,8.1526165E0,1.5E0,3.2429419E0,1.4261048E1,2.1971346E1,1.970841E3,3.392127E1,1.3390106E1,3.1286942E1,2.3224054E1,3.0564358E0,6.586848E1,2.7625427E0,1.951017E3,1.9806271E0,6.2558894E0,1.6000261E0,1.6429158E0,2.7758124E0,1.1485235E1,2.0062643E1,1.9087031E0,1.9441027E3,2.6738325E1,2.8314726E1,5.606543E0,6.3709207E0,7.0191855E0,2.6438553E1,4.848388E0,5.786268E0,1.7437786E1,1.8690317E0,1.1874042E0,1.828139E1,4.758709E1,1.0444214E0,1.7181213E0,1.856433E2,1.7653737E3,5.036758E0,1.2191315E0,1.5584733E0,1.2173392E0,1.0396533E1,1.0887028E0,1.7472418E1,2.5902255E0,2.724417E0,1.9413783E3,1.9465149E1,7.2731767E0,1.1201222E0,2.7194603E1,2.5815551E0,3.0249882E0,2.7593665E0,3.6115541E0,3.0143883E0,4.004797E0,2.5074535E1,1.3640176E0,1.1369301E0,3.7114582E0,2.608972E0,3.1772962E0,2.2608013E0,1.5176984E1,1.6731827E1,1.5495636E0,1.4441943E0,4.6142895E1,1.8256104E2,3.0822513E0,1.7641765E3,1.1971084E0,1.6274614E1,1.1978033E0,1.3722203E0,1.2180052E0,1.6368343E0,1.0875827E0,1.9402562E3,1.1220638E0,3.3478246E0,3.925352E0,2.6088205E1,1.1063975E0,1.4557827E0,1.1257725E0,1.0879221E0,1.9370661E0,1.6413765E0,1.9701777E0,1.5466623E0,1.4677261E0,1.9757649E0,2.309877E1,1.6287366E0,1.5485594E0,1.215231E0,1.0455705E0,1.3942011E1,1.2349727E0,5.0320053E0,1.16998205E1,1.4449641E2,3.8064625E1,1.5819821E0,1.5002692E0,1.7606871E3,3.4894152E0,1.594769E0,1.4679846E1,2.2411304E0,1.1066942E0,2.8938894E0,1.0314627E0,2.1996668E1,1.1021017E0,3.6794598E0,1.3525456E0,9.232669E0,2.4671514E0,1.5660034E1,1.2883638E2,6.4993806E0,3.1565247E1,1.005209E0,2.4842062E0,2.9189434E0,1.9077724E1,2.612669E0,1.0667906E0,1.382377E0,1.0847743E0,1.4332538E1,1.3274963E0,3.3672318E0,3.1321487E0,1.0786493E0,3.0486597E1,1.8868126E0,1.0321308E0,1.2941248E0,1.77836E1,1.3301119E1,1.0314188E0,1.1678061E0,2.1994257E0,1.1248218E0,2.9361774E1,1.0359545E0,2.832582E1,2.6920544E1,1.4052762E0,1.5693033E0,2.5351242E1],"tree_param":{"num_deleted":"0","num_feature":"27","num_nodes":"173","size_leaf_vector":"0"}},{"base_weights":[1.0172757E-3,-1.169258E0,1.1742643E0,-1.5960935E-1,-1.1996145E0,6.1248463E-1,1.2077215E0,-1.110146E0,5.788427E-1,-1.213039E0,-4.814687E-1,9.831546E-2,1.0143703E0,1.2113914E0,3.7195542E-1,-2.2936335E-1,-1.142103E0,-1.4803542E-2,1.0038825E0,-1.2270635E0,-9.8117316E-1,-8.8677496E-1,7.566493E-2,-3.5606265E-1,1.0285455E0,-2.0724402E-3,1.0601127E0,2.9428893E-1,1.2127076E0,-8.3931816E-1,8.5382956E-1,-2.4513091E-1,-1.1767764E0,-6.196522E-1,4.7683588E-1,1.112092E0,-3.2761997E-1,-1.0536326E0,5.641638E-1,-1.1418546E0,-1.3028467E-1,-7.46871E-1,7.203155E-1,5.7154983E-1,-7.517052E-1,1.1310817E0,2.7665237E-1,-5.4776996E-1,5.395405E-1,1.0879998E0,8.569756E-2,7.788705E-1,-4.565033E-1,1.1006253E0,1.2269804E0,1.065405E0,-1.4402662E-2,4.0239885E-1,-9.2902493E-1,7.2108287E-1,-4.9665973E-1,2.8543052E-1,1.2022643E0,6.827463E-1,-1.0924888E0,-5.0163823E-1,1.0558939E0,-3.3721313E-1,-1.1807269E0,-7.9121655E-1,6.4889187E-1,-1.1179221E0,1.09627545E-1,9.9376404E-1,1.10896856E-1,-3.7421077E-1,8.602961E-1,-2.0046152E-1,-1.1551518E0,-2.4378347E-1,6.57584E-1,1.160666E0,5.5555713E-1,1.1135905E0,-2.0107678E-1,5.990902E-1,1.2288593E0,-1.132025E0,-8.346353E-2,2.1262197E-1,1.0106115E0,3.7863848E-1,1.248142E0,4.061646E-2,-1.1367053E0,1.4969563E0,4.2306174E-2,-9.769886E-1,-1.9688354E-1,-1.5664764E-3,9.497607E-1,1.0865632E0,2.9144728E-1,-6.5825796E-1,8.76772E-1,1.0651307E0,-2.3237228E-1,-5.035708E-1,7.84505E-1,-1.2195575E0,-4.0179282E-1,1.2078009E0,3.6540294E-1,1.0416739E0,-8.351215E-2,1.1749519E0,8.977137E-1,8.313582E-1,-2.8787336E-1,7.91659E-1,-4.05937E-1,4.9870712E-1,-6.961511E-1,-1.1552416E0,-3.0712935E-1,-7.5106555E-1,5.6665576E-1,8.863541E-1,-4.954191E-1,8.3753943E-1,-1.2772661E0,1.1946524E0,6.7205644E-1,5.756914E-1,1.1957052E0,1.5162954E-1,9.64823E-1,-1.03773795E-1,8.475741E-1,-1.1843563E0,-4.7406024E-1,3.2960042E-1,-7.678596E-1,1.6968483E-1,-1.0307542E0,1.2008626E0,2.4560884E-1,9.3863434E-1,-3.517376E-1,-2.2236077E-1,7.8738284E-1,-1.1931255E0,-2.4827953E-1,4.507195E-1,-9.3630576E-1,-1.1249253E0,-2.9762757E-1,7.902894E-1,1.223889E0,1.0483707E0,2.0207256E-1,-1.0498217E0,5.0382924E-1,-2.1690437E-1,8.9412296E-1,1.1180497E0,-5.8105135E-1,-1.778277E-1,8.2305145E-1,1.0250337E0,9.62955E-3,1.6028234E-1,1.1100999E0,-7.364451E-1,7.090444E-1,1.1728647E0,1.6932273E-1],"categories":[],"categories_nodes":[],"categories_segments":[],"categories_sizes":[],"default_left":[1,1,1,1,1,1,1,1,1,1,1,1,1,1,1,0,1,1,1,0,1,1,1,1,1,1,1,1,1,0,1,0,0,1,1,1,0,1,1,1,1,1,1,1,1,0,1,0,0,1,0,0,0,1,1,0,0,0,1,1,0,0,1,0,1,0,1,0,0,1,1,0,0,1,1,0,1,1,1,0,0,1,1,1,0,1,0,0,0,1,0,0,0,1,1,0,0,0,0,0,0,0,0,0,0,0,0,1,0,0,0,0,1,0,1,1,1,1,0,0,0,1,0,1,1,1,0,0,0,0,0,1,1,1,0,0,0,0,0,1,1,0,0,0,1,1,0,1,0,1,1,0,0,0,0,0,0,1,0,0,0,0,1,0,1,0,0,0,0,1,1,0,1,0,0,0,0],"id":3,"left_children":[1,3,5,7,9,11,13,15,17,19,21,23,25,27,29,-1,31,33,35,-1,37,39,41,43,45,47,49,51,53,-1,55,-1,-1,57,59,61,-1,63,65,67,69,71,73,75,77,-1,79,-1,-1,81,-1,-1,-1,83,85,-1,-1,-1,87,89,-1,-1,91,-1,93,-1,95,-1,-1,97,99,-1,-1,101,103,-1,105,107,109,-1,-1,111,113,115,-1,117,-1,-1,-1,119,-1,-1,-1,121,123,-1,-1,-1,-1,-1,-1,-1,-1,-1,-1,-1,-1,125,-1,-1,-1,-1,127,-1,129,131,133,135,-1,-1,-1,137,-1,139,141,143,-1,-1,-1,-1,-1,145,147,149,-1,-1,-1,-1,-1,151,153,-1,-1,-1,155,157,-1,159,-1,161,163,-1,-1,-1,-1,-1,-1,165,-1,-1,-1,-1,167,-1,169,-1,-1,-1,-1,171,173,-1,175,-1,-1,-1,-1],"loss_changes":[4.590821E3,5.111328E1,3.0643066E1,3.5748108E1,1.5081055E1,1.971231E1,4.3793945E0,3.6317253E-1,7.2827578E0,3.9812012E0,7.1745477E0,1.8613356E1,2.4993248E0,1.5354004E0,5.577485E0,0E0,3.7026596E-1,4.1623507E0,2.784937E0,0E0,1.133606E1,3.3823032E0,8.055004E0,1.1346628E1,7.991295E-1,1.2741182E0,1.303402E0,1.6532754E0,1.152832E0,0E0,1.2008276E0,0E0,0E0,2.3549347E0,2.1980882E0,8.31995E-1,0E0,6.9517975E0,3.122787E0,2.5846481E-2,3.4710128E0,2.2581286E0,1.2990503E0,2.9058566E0,4.50202E0,0E0,7.6591575E-1,0E0,0E0,1.2851257E0,0E0,0E0,0E0,3.3710632E0,8.913574E-1,0E0,0E0,0E0,7.829547E-1,7.558558E-1,0E0,0E0,5.275154E-2,0E0,4.573044E0,0E0,1.5942807E0,0E0,0E0,2.0047808E-1,6.2483776E-1,0E0,0E0,5.558586E-2,2.7831569E0,0E0,1.9377661E0,3.4416676E0,9.6105576E-2,0E0,0E0,1.1695023E0,2.543791E0,1.3930664E0,0E0,1.4891667E0,0E0,0E0,0E0,1.6318704E0,0E0,0E0,0E0,1.8183247E0,9.829254E-1,0E0,0E0,0E0,0E0,0E0,0E0,0E0,0E0,0E0,0E0,0E0,0E0,2.6538138E0,0E0,0E0,0E0,0E0,2.1603673E0,0E0,5.844272E0,5.9062195E-1,3.643093E0,3.1319976E-1,0E0,0E0,0E0,7.7534175E-1,0E0,1.1189575E0,1.2104621E0,2.0451274E0,0E0,0E0,0E0,0E0,0E0,4.9520874E-1,2.401156E0,4.1659446E0,0E0,0E0,0E0,0E0,0E0,3.6531067E-1,2.619442E0,0E0,0E0,0E0,5.9520245E-2,2.8956604E-1,0E0,2.9681778E-1,0E0,3.9734244E0,2.2189636E0,0E0,0E0,0E0,0E0,0E0,0E0,5.0914145E0,0E0,0E0,0E0,0E0,9.577214E-1,0E0,1.9899244E0,0E0,0E0,0E0,0E0,9.280453E-1,2.2108371E0,0E0,5.9970474E-1,0E0,0E0,0E0,0E0],"parents":[2147483647,0,0,1,1,2,2,3,3,4,4,5,5,6,6,7,7,8,8,9,9,10,10,11,11,12,12,13,13,14,14,16,16,17,17,18,18,20,20,21,21,22,22,23,23,24,24,25,25,26,26,27,27,28,28,30,30,33,33,34,34,35,35,37,37,38,38,39,39,40,40,41,41,42,42,43,43,44,44,46,46,49,49,53,53,54,54,58,58,59,59,62,62,64,64,66,66,69,69,70,70,73,73,74,74,76,76,77,77,78,78,81,81,82,82,83,83,85,85,89,89,93,93,94,94,107,107,112,112,114,114,115,115,116,116,117,117,121,121,123,123,124,124,125,125,131,131,132,132,133,133,139,139,140,140,144,144,145,145,147,147,149,149,150,150,157,157,162,162,164,164,169,169,170,170,172,172],"right_children":[2,4,6,8,10,12,14,16,18,20,22,24,26,28,30,-1,32,34,36,-1,38,40,42,44,46,48,50,52,54,-1,56,-1,-1,58,60,62,-1,64,66,68,70,72,74,76,78,-1,80,-1,-1,82,-1,-1,-1,84,86,-1,-1,-1,88,90,-1,-1,92,-1,94,-1,96,-1,-1,98,100,-1,-1,102,104,-1,106,108,110,-1,-1,112,114,116,-1,118,-1,-1,-1,120,-1,-1,-1,122,124,-1,-1,-1,-1,-1,-1,-1,-1,-1,-1,-1,-1,126,-1,-1,-1,-1,128,-1,130,132,134,136,-1,-1,-1,138,-1,140,142,144,-1,-1,-1,-1,-1,146,148,150,-1,-1,-1,-1,-1,152,154,-1,-1,-1,156,158,-1,160,-1,162,164,-1,-1,-1,-1,-1,-1,166,-1,-1,-1,-1,168,-1,170,-1,-1,-1,-1,172,174,-1,176,-1,-1,-1,-1],"split_conditions":[6.7923784E-1,9.141225E-1,7.262416E-1,5.0044775E-1,5.839002E-1,2.0457E-2,1.3188268E1,4.218214E-2,9.5E0,5.063659E-1,3.101967E-1,9.7124714E-1,7.331369E-1,1.5795365E-1,7.309427E-1,-6.880901E-2,1.0592479E2,9.1568077E-1,1.0615112E1,-3.6811906E-1,9.873005E-1,2.0311859E-2,9.08512E-1,8.00042E0,5.9000003E-1,8.9E0,9.865E0,6.745E0,7.307235E-1,-2.5179547E-1,1.3986662E-1,-7.353928E-2,-3.5303295E-1,5.855E0,6.610389E1,5.039406E-1,-9.8285995E-2,3.78932E-1,2.9161727E-1,-3.2265685E-3,8.5E0,5.2324474E-1,7.8253317E0,5.545163E-1,8.733992E-2,3.3932453E-1,9.965044E-2,-1.6433099E-1,1.6186216E-1,5.8074546E-1,2.570927E-2,2.3366116E-1,-1.36951E-1,1.2418836E1,6.0661763E-2,3.196215E-1,-4.320799E-3,1.20719664E-1,1.285E1,5.23365E-1,-1.4899792E-1,8.562916E-2,-8.296262E-3,2.048239E-1,4.38E0,-1.5049148E-1,1.2522647E2,-1.01163946E-1,-3.5421807E-1,8.006E1,7.217E1,-3.3537662E-1,3.2888263E-2,1.4109257E-1,5.5348897E-1,-1.1226324E-1,9.313628E1,3.3821508E-1,2.4713513E-1,-7.313505E-2,1.972752E-1,9.2766815E-1,7.9685187E0,7.630964E1,-6.0323033E-2,7.875E-1,3.686578E-1,-3.396075E-1,-2.503906E-2,3.7868872E-2,3.0318347E-1,1.13591544E-1,3.744426E-1,6.0266853E1,5.334775E-1,4.4908693E-1,1.2691853E-2,-2.930966E-1,-5.9065066E-2,-4.6994296E-4,2.849282E-1,3.2596898E-1,8.743419E-2,-1.974774E-1,2.630316E-1,3.1953922E-1,-6.9711685E-2,2.25E1,2.3535152E-1,-3.6586726E-1,-1.20537855E-1,3.6234027E-1,4.747619E-1,3.1250218E-1,2.5008422E-1,1.1024902E1,9.681101E-1,6.0145E1,-8.636201E-2,2.374977E-1,-1.217811E-1,6.27E0,-2.0884533E-1,2.97392E-1,7.0821154E-1,8.0394775E1,1.6999674E-1,2.6590624E-1,-1.4862575E-1,2.5126183E-1,-3.8317987E-1,6.8333334E-1,1.7468068E-1,5.19E1,3.5871157E-1,4.5488864E-2,2.8944692E-1,-3.113214E-2,2.5427225E-1,2.85E1,7.857143E0,9.8880135E-2,-2.3035789E-1,5.090545E-2,1.1333246E2,7.241254E-1,7.368265E-2,3.1277502E-1,-1.05521284E-1,1.465E1,-8.996212E-4,-3.5793766E-1,-7.4483864E-2,1.3521586E-1,-2.8089175E-1,-3.374776E-1,-8.928827E-2,4.1878548E1,3.671667E-1,3.1451124E-1,6.0621772E-2,-3.1494653E-1,8.82075E-1,-6.5071315E-2,3.0569446E-1,3.3541495E-1,-1.7431541E-1,-5.3348314E-2,2.4691544E-1,6.1125E0,3.5364228E-1,4.8084706E-2,1.01870164E-1,-2.2093354E-1,2.1271333E-1,3.5185942E-1,5.079682E-2],"split_indices":[26,21,26,26,26,22,17,6,0,26,3,1,1,3,26,0,23,1,17,0,1,22,1,17,7,12,13,13,26,0,6,0,0,13,19,26,0,16,3,6,12,7,17,1,5,0,5,0,0,7,0,0,0,17,2,0,0,0,14,26,0,0,6,0,11,0,23,0,0,8,8,0,0,4,2,0,19,3,6,0,0,21,17,19,0,7,0,0,0,4,0,0,0,19,3,0,0,0,0,0,0,0,0,0,0,0,0,0,0,0,0,0,7,0,3,17,1,8,0,0,0,13,0,6,16,19,0,0,0,0,0,6,4,8,0,0,0,0,0,0,14,0,0,0,19,1,0,3,0,14,6,0,0,0,0,0,0,19,0,0,0,0,1,0,6,0,0,0,0,14,6,0,24,0,0,0,0],"split_type":[0,0,0,0,0,0,0,0,0,0,0,0,0,0,0,0,0,0,0,0,0,0,0,0,0,0,0,0,0,0,0,0,0,0,0,0,0,0,0,0,0,0,0,0,0,0,0,0,0,0,0,0,0,0,0,0,0,0,0,0,0,0,0,0,0,0,0,0,0,0,0,0,0,0,0,0,0,0,0,0,0,0,0,0,0,0,0,0,0,0,0,0,0,0,0,0,0,0,0,0,0,0,0,0,0,0,0,0,0,0,0,0,0,0,0,0,0,0,0,0,0,0,0,0,0,0,0,0,0,0,0,0,0,0,0,0,0,0,0,0,0,0,0,0,0,0,0,0,0,0,0,0,0,0,0,0,0,0,0,0,0,0,0,0,0,0,0,0,0,0,0,0,0,0,0,0,0],"sum_hessian":[3.3415889E3,1.6729148E3,1.6686741E3,4.901314E1,1.6239016E3,9.487837E1,1.5737957E3,2.1209236E1,2.7803905E1,1.5934263E3,3.0475395E1,4.2170467E1,5.2707905E1,1.5664678E3,7.327917E0,1.0288837E0,2.0180351E1,1.2003703E1,1.5800203E1,1.4984966E3,9.49296E1,1.7298979E1,1.3176417E1,2.874633E1,1.3424136E1,2.31095E0,5.0396957E1,2.5669236E0,1.5639008E3,1.8744316E0,5.4534855E0,1.0513926E0,1.912896E1,5.2654295E0,6.738273E0,1.4765051E1,1.0351523E0,9.098174E1,3.9478638E0,1.2555873E1,4.7431045E0,5.719767E0,7.4566507E0,8.461986E0,2.0284346E1,1.1369376E1,2.05476E0,1.1454718E0,1.1654782E0,4.8881435E1,1.5155202E0,1.5373064E0,1.0296173E0,1.8547778E2,1.378423E3,4.20234E0,1.2511451E0,1.1536179E0,4.1118116E0,5.594033E0,1.1442404E0,1.8618435E0,1.2903207E1,1.6286895E0,8.935305E1,1.2400228E0,2.707841E0,1.0244764E0,1.1531397E1,2.5579154E0,2.185189E0,3.777891E0,1.9418759E0,4.711781E0,2.7448695E0,1.9099951E0,6.5519905E0,9.2046175E0,1.1079728E1,1.0205286E0,1.0342314E0,4.1973175E1,6.9082594E0,1.8379169E2,1.6860977E0,5.0667973E0,1.3733562E3,3.042574E0,1.0692378E0,2.6589112E0,2.9351215E0,1.1690419E0,1.1734165E1,3.3588793E0,8.599417E1,1.5545083E0,1.1533326E0,1.4582626E0,1.0996529E0,1.0057085E0,1.1794807E0,3.6786036E0,1.0331776E0,1.43961E0,1.3052595E0,5.5388618E0,1.0131285E0,7.4123244E0,1.7922928E0,9.637019E0,1.4427086E0,3.9134922E1,2.8382542E0,3.565856E0,3.3424032E0,1.3965355E2,4.4138145E1,4.0649943E0,1.0018028E0,1.2287894E0,1.4301217E0,2.2703729E0,1.0885063E0,8.37307E1,2.263475E0,6.2623463E0,1.1499779E0,1.7497082E0,1.088546E0,2.05514E0,1.2872632E0,1.3306526E2,6.588289E0,2.262284E1,2.1515305E1,1.0177505E0,3.0472438E0,1.0901915E0,1.1801814E0,7.959021E1,4.1404862E0,1.0697256E0,1.1937493E0,1.5506918E0,4.7116547E0,1.3193657E2,1.1286931E0,5.2932105E0,1.2950783E0,4.7322826E0,1.7890558E1,7.8579475E1,1.0107343E0,1.3881847E0,2.7523015E0,3.7017395E0,1.0099149E0,8.8822155E0,1.23054344E2,4.238421E0,1.0547894E0,2.003606E0,2.7286763E0,1.6196506E0,1.6270908E1,7.31789E0,1.5643252E0,1.0115592E0,1.7171171E0,1.4034776E1,2.2361324E0,1.5152723E0,1.2519504E1,1.0563577E0,1.1797748E0,1.1505224E1,1.0142792E0],"tree_param":{"num_deleted":"0","num_feature":"27","num_nodes":"177","size_leaf_vector":"0"}},{"base_weights":[1.6973381E-3,-1.0910609E0,1.0948664E0,-1.3630393E-1,-1.1224266E0,5.155283E-1,1.1306541E0,-1.0023383E0,4.9024773E-1,-1.1408288E0,-5.3415424E-1,2.8526366E-2,9.0311587E-1,1.1353341E0,2.6162842E-1,-1.1160593E0,-5.0204885E-1,-1.8341748E-1,7.654802E-1,-1.1473756E0,-6.8869215E-1,-7.5358635E-1,4.2299026E-1,-7.8520095E-1,4.469023E-1,-2.2156873E-1,9.415507E-1,9.980851E-1,1.1540163E0,-7.6544565E-1,7.5404453E-1,-8.738101E-1,3.0697262E-1,5.3830916E-1,-6.702451E-1,8.7003654E-1,-5.167174E-1,-1.1485529E0,1.2869737E-1,-1.0775726E0,4.6190944E-2,2.7505383E-1,-8.59785E-1,7.1130776E-1,-6.8830293E-1,-9.0904546E-1,2.0365265E-1,-1.2100823E-1,8.216231E-1,6.459411E-1,1.0792434E0,1.0191206E0,-3.471457E-1,1.1572735E0,6.0833216E-1,-8.572297E-2,9.782578E-1,8.364968E-1,-4.5055397E-2,1.09015405E-2,-8.3735836E-1,-2.6542506E-1,9.7282034E-1,-1.1562513E0,-9.625491E-1,7.130383E-1,-5.5360365E-1,7.4278945E-1,-3.2673943E-1,1.9748975E-1,-9.304751E-1,2.244622E-1,1.0402627E0,-9.9867575E-2,-1.0331652E0,7.239593E-1,-6.8894374E-1,-9.933063E-2,9.152924E-1,9.6191245E-1,7.05852E-2,3.7989962E-1,1.1094202E0,1.1249973E0,8.740956E-1,-9.35597E-1,4.3753022E-1,2.0303467E-1,1.1580836E0,8.728837E-1,-2.1056314E-1,2.8586218E-1,1.0715168E0,-1.1570743E0,-5.074038E-1,5.149971E-1,-1.0231497E0,-1.4321612E-1,1.144409E0,-9.23517E-1,3.9331293E-1,-9.654493E-1,1.8354286E-2,6.785689E-1,-3.5883787E-1,-1.1349783E0,-1.557635E-1,-4.348868E-2,9.643484E-1,-8.7027824E-1,1.5431263E-1,8.649384E-2,1.006821E0,2.6380706E-1,1.0784737E0,-3.656405E-1,8.442588E-1,2.269291E-1,1.1465591E0,3.4526163E-1,1.1335889E0,5.3812426E-1,1.0360892E0,9.7116154E-1,1.9872203E-1,8.565232E-1,-4.640798E-1,1.3224448E-1,1.1443518E0,-9.887703E-2,-6.486964E-1,-1.0562947E0,6.1929964E-2,-1.0001012E0,-9.686794E-2,-1.0056918E0,-2.0277411E-1,3.2697767E-1,1.0818235E0,5.3649235E-1,-9.599462E-1,1.1436635E0,4.1152057E-1,7.3565406E-1,-2.960853E-1,3.0504096E-1,1.0704122E0,3.2277352E-1,1.2007363E0,-1.0886742E0,-2.6406735E-1,-1.17763005E-1,-1.0340662E0,-3.0285957E-1,8.8653845E-1,-8.6024565E-1,7.142449E-1,7.1508527E-1,-3.1039676E-1,1.0906373E0,1.3790497E-1,-1.2288778E-1,-1.1080372E0,-7.130024E-1,3.863553E-1,-1.18725546E-1,-1.0681355E0,-1.0042655E0,6.136676E-1,1.090434E0,3.5719496E-1,-6.17174E-2,-1.1350276E0,1.1171544E0,4.9049962E-1,-1.127362E0,-1.3140933E-1,7.87222E-1,-6.567066E-1,1.1376374E0,4.1248718E-1,6.9958067E-1,2.4120568E-3,-1.1421819E0,-2.6087764E-1,1.4098425E-1,9.160614E-1],"categories":[],"categories_nodes":[],"categories_segments":[],"categories_sizes":[],"default_left":[1,1,1,1,1,1,1,1,1,1,1,1,1,1,1,0,1,1,1,1,1,1,1,1,1,0,1,1,1,0,1,0,0,1,1,1,0,1,0,0,1,1,1,1,0,1,0,1,1,1,1,1,1,1,1,0,0,0,0,0,0,0,1,1,1,1,1,0,0,0,1,1,0,0,1,1,1,0,1,1,1,0,1,1,1,0,0,0,0,1,0,1,1,0,1,0,1,0,0,0,0,1,0,0,0,0,0,0,0,1,0,0,1,0,0,1,0,0,0,0,1,1,1,0,0,0,0,0,1,0,0,1,0,1,0,0,0,0,0,0,0,0,0,1,1,1,1,0,0,1,1,0,1,1,1,1,0,0,0,1,0,0,1,0,0,0,0,0,0,0,1,0,0,1,1,1,0,1,0,0,0,0,0,0,0,0,0],"id":4,"left_children":[1,3,5,7,9,11,13,15,17,19,21,23,25,27,29,-1,31,33,35,37,39,41,43,45,47,-1,49,51,53,-1,55,-1,-1,57,59,61,-1,63,-1,-1,65,67,69,71,-1,73,-1,75,77,79,81,83,85,87,89,-1,-1,-1,-1,-1,-1,-1,91,93,95,97,99,-1,-1,-1,101,103,-1,-1,105,107,109,-1,111,113,115,-1,117,119,121,-1,-1,-1,-1,123,-1,125,127,-1,129,-1,131,-1,-1,-1,-1,133,-1,-1,-1,-1,-1,-1,-1,135,-1,-1,137,-1,-1,139,-1,-1,-1,-1,141,143,145,-1,-1,-1,-1,-1,147,-1,-1,149,-1,151,-1,-1,-1,-1,-1,-1,-1,-1,-1,153,155,157,159,-1,-1,161,163,-1,165,167,169,171,-1,-1,-1,173,-1,-1,175,-1,-1,-1,-1,-1,-1,-1,177,-1,-1,179,181,183,-1,185,-1,-1,-1,-1,-1,-1,-1,-1,-1],"loss_changes":[3.1446006E3,3.927063E1,2.670105E1,2.3829813E1,1.318689E1,1.4772692E1,4.7402344E0,4.8558044E-1,4.8921237E0,2.8651123E0,8.83289E0,1.253088E1,2.0943146E0,2.0062256E0,4.589648E0,0E0,1.8389558E0,3.2560132E0,2.9146185E0,1.9743652E0,5.8017673E0,3.8782482E0,3.1171913E0,1.7172956E0,5.263331E0,0E0,1.0275612E0,4.7388306E0,1.2115479E0,0E0,1.188431E0,0E0,0E0,7.1155286E-1,6.199622E-1,2.2858458E0,0E0,6.263428E-1,0E0,0E0,3.5640988E0,1.3340907E0,2.460291E0,8.880758E-1,0E0,1.0319042E0,0E0,5.5461416E0,1.3631334E0,2.8327632E0,1.571331E-1,1.3633118E0,1.855422E0,5.92041E-1,2.0258222E0,0E0,0E0,0E0,0E0,0E0,0E0,0E0,7.8839207E-1,3.3325195E-2,5.3843117E0,1.711273E0,2.0216715E0,0E0,0E0,0E0,9.709816E-1,1.3292599E0,0E0,0E0,6.8897724E-1,9.118633E-1,1.1744661E0,0E0,9.358072E-1,5.4712963E-1,2.581857E0,0E0,5.841465E-1,1.7707825E-1,3.1964798E0,0E0,0E0,0E0,0E0,2.45677E-1,0E0,1.8492098E0,7.89587E-1,0E0,1.23601496E-1,0E0,1.9516258E0,0E0,0E0,0E0,0E0,7.375431E-1,0E0,0E0,0E0,0E0,0E0,0E0,0E0,3.1573153E-1,0E0,0E0,2.6065254E-1,0E0,0E0,3.1982603E0,0E0,0E0,0E0,0E0,1.3672638E-1,4.2581315E0,8.1407547E-1,0E0,0E0,0E0,0E0,0E0,1.9766617E-1,0E0,0E0,1.0193977E0,0E0,6.7396927E-1,0E0,0E0,0E0,0E0,0E0,0E0,0E0,0E0,0E0,3.4199505E0,3.6965327E0,1.0893233E0,6.609421E-1,0E0,0E0,7.7316666E-1,1.2451183E0,0E0,6.665249E-1,2.735611E0,1.5333118E0,7.9083467E-1,0E0,0E0,0E0,1.1981201E-1,0E0,0E0,7.49176E-1,0E0,0E0,0E0,0E0,0E0,0E0,0E0,3.3253336E0,0E0,0E0,9.9472046E-2,3.6144078E-1,2.9903412E-1,0E0,2.8529286E-1,0E0,0E0,0E0,0E0,0E0,0E0,0E0,0E0,0E0],"parents":[2147483647,0,0,1,1,2,2,3,3,4,4,5,5,6,6,7,7,8,8,9,9,10,10,11,11,12,12,13,13,14,14,16,16,17,17,18,18,19,19,20,20,21,21,22,22,23,23,24,24,26,26,27,27,28,28,30,30,33,33,34,34,35,35,37,37,40,40,41,41,42,42,43,43,45,45,47,47,48,48,49,49,50,50,51,51,52,52,53,53,54,54,62,62,63,63,64,64,65,65,66,66,70,70,71,71,74,74,75,75,76,76,78,78,79,79,80,80,82,82,83,83,84,84,89,89,91,91,92,92,94,94,96,96,101,101,109,109,112,112,115,115,120,120,121,121,122,122,128,128,131,131,133,133,143,143,144,144,145,145,146,146,149,149,150,150,152,152,153,153,154,154,155,155,159,159,162,162,170,170,173,173,174,174,175,175,177,177],"right_children":[2,4,6,8,10,12,14,16,18,20,22,24,26,28,30,-1,32,34,36,38,40,42,44,46,48,-1,50,52,54,-1,56,-1,-1,58,60,62,-1,64,-1,-1,66,68,70,72,-1,74,-1,76,78,80,82,84,86,88,90,-1,-1,-1,-1,-1,-1,-1,92,94,96,98,100,-1,-1,-1,102,104,-1,-1,106,108,110,-1,112,114,116,-1,118,120,122,-1,-1,-1,-1,124,-1,126,128,-1,130,-1,132,-1,-1,-1,-1,134,-1,-1,-1,-1,-1,-1,-1,136,-1,-1,138,-1,-1,140,-1,-1,-1,-1,142,144,146,-1,-1,-1,-1,-1,148,-1,-1,150,-1,152,-1,-1,-1,-1,-1,-1,-1,-1,-1,154,156,158,160,-1,-1,162,164,-1,166,168,170,172,-1,-1,-1,174,-1,-1,176,-1,-1,-1,-1,-1,-1,-1,178,-1,-1,180,182,184,-1,186,-1,-1,-1,-1,-1,-1,-1,-1,-1],"split_conditions":[6.787162E-1,9.141225E-1,7.258584E-1,5.0044775E-1,5.53645E-1,2.0457E-2,1.3162414E1,9.465036E-1,6.5E0,9.917179E-1,9.6801853E-1,2.8080428E-1,3.397436E-1,7.307235E-1,7.309427E-1,-3.348178E-1,5.0002253E-1,9.1E0,1.0677335E1,9.8104996E1,5.005418E-1,6.365E0,1.1659773E1,2.25E1,9.333546E-1,-6.647062E-2,7.5E0,1.2418836E1,9.785224E-1,-2.296337E-1,2.4466531E-1,-2.6214305E-1,9.209179E-2,1.5E0,7.985846E-2,8.342926E-1,-1.5501522E-1,5.079482E-1,3.860921E-2,-3.2327178E-1,6.04E1,6.0135384E1,4.463418E1,3.552965E-1,-2.0649089E-1,6.64E0,6.1095797E-2,9.15E0,4.528344E0,5.289664E-1,5.705E0,9.243202E-1,9.535271E-1,1.5491037E-1,1.149E1,-2.5716892E-2,2.9347736E-1,2.5094905E-1,-1.351662E-2,3.2704624E-3,-2.5120753E-1,-7.962752E-2,5.039406E-1,4.451573E-1,3.7914094E-1,9.698557E0,5.128487E-1,2.2283684E-1,-9.8021835E-2,5.9246927E-2,1.560671E-1,9.485528E-2,3.1207883E-1,-2.9960273E-2,9.7019255E-1,4.7723195E-1,5.706644E-1,-2.979919E-2,3.6824495E-1,7.0134103E-1,1.11E1,1.1396989E-1,1.8651208E-2,-5.1089644E-2,3.563969E-1,-2.806791E-1,1.3125907E-1,6.0910404E-2,3.4742507E-1,4.375E-1,-6.316894E-2,5.444732E1,6.187687E-1,-3.471223E-1,3.939274E-1,1.5449914E-1,5.334775E-1,-4.296484E-2,3.433227E-1,-2.770551E-1,1.17993884E-1,2.45E1,5.506286E-3,2.0357068E-1,-1.0765137E-1,-3.404935E-1,-4.6729054E-2,-1.3046605E-2,2.8930452E-1,7.2030854E-1,4.6293788E-2,2.5948154E-2,6.946775E-1,7.914212E-2,3.2354212E-1,5.385E0,2.5327766E-1,6.8078734E-2,3.4396774E-1,1.0357849E-1,1.6624308E-1,1.0014999E1,7.373241E-1,2.913485E-1,5.9616614E-2,2.5695696E-1,-1.3922395E-1,3.9673347E-2,8.555287E-3,-2.966311E-2,-1.9460894E-1,3.095995E-1,1.857899E-2,6.8664216E-2,-2.9060384E-2,-3.0170754E-1,-6.0832236E-2,9.809331E-2,3.2454705E-1,1.6094771E-1,-2.8798386E-1,3.4309906E-1,1.2345617E-1,5.4317616E-2,9.815985E-1,4.00091E1,2.3659147E-2,9.683206E-2,3.602209E-1,5.083331E-1,7.774179E1,-3.5328902E-2,5.5744016E-1,6.885E0,9.399796E0,1.275E1,2.1427348E-1,2.145256E-1,-9.311903E-2,7.192708E-1,4.1371495E-2,-3.6866337E-2,9.8046315E-1,-2.1390073E-1,1.15906596E-1,-3.5617664E-2,-3.2044065E-1,-3.0127966E-1,1.8410029E-1,3.271302E-1,5.042523E-1,-1.851522E-2,-3.405083E-1,1.625E1,9.865E0,2.3266615E-2,-3.9422803E-2,1.1E1,-1.9701198E-1,3.4129122E-1,1.2374616E-1,2.0987421E-1,7.2361703E-4,-3.426546E-1,-7.82633E-2,4.2295277E-2,2.7481842E-1],"split_indices":[26,21,26,26,26,22,17,1,0,1,1,3,2,26,26,0,26,10,17,8,26,13,17,0,1,0,0,17,21,0,3,0,0,0,5,1,0,26,0,0,8,19,19,3,0,11,0,10,17,7,15,21,1,3,15,0,0,0,0,0,0,0,26,6,16,17,26,0,0,0,4,5,0,0,1,1,7,0,7,26,14,0,4,6,3,0,0,0,0,6,0,19,2,0,3,0,3,0,0,0,0,0,0,0,0,0,0,0,0,26,0,0,26,0,0,11,0,0,0,0,24,11,1,0,0,0,0,0,6,0,0,6,0,24,0,0,0,0,0,0,0,0,0,5,1,19,25,0,0,26,19,0,26,13,17,10,0,0,0,7,0,0,1,0,0,0,0,0,0,0,16,0,0,10,15,22,0,0,0,0,0,0,0,0,0,0,0],"split_type":[0,0,0,0,0,0,0,0,0,0,0,0,0,0,0,0,0,0,0,0,0,0,0,0,0,0,0,0,0,0,0,0,0,0,0,0,0,0,0,0,0,0,0,0,0,0,0,0,0,0,0,0,0,0,0,0,0,0,0,0,0,0,0,0,0,0,0,0,0,0,0,0,0,0,0,0,0,0,0,0,0,0,0,0,0,0,0,0,0,0,0,0,0,0,0,0,0,0,0,0,0,0,0,0,0,0,0,0,0,0,0,0,0,0,0,0,0,0,0,0,0,0,0,0,0,0,0,0,0,0,0,0,0,0,0,0,0,0,0,0,0,0,0,0,0,0,0,0,0,0,0,0,0,0,0,0,0,0,0,0,0,0,0,0,0,0,0,0,0,0,0,0,0,0,0,0,0,0,0,0,0,0,0,0,0,0,0],"sum_hessian":[2.6304133E3,1.3154548E3,1.3149585E3,4.2010986E1,1.2734438E3,7.739995E1,1.2375586E3,1.738343E1,2.4627556E1,1.2339059E3,3.9538025E1,3.4776737E1,4.2623207E1,1.2306249E3,6.933732E0,1.3160978E1,4.222453E0,7.240105E0,1.7387451E1,1.2147787E3,1.912723E1,3.2337173E1,7.200852E0,1.151115E1,2.3265589E1,1.2510165E0,4.1372192E1,1.5396204E2,1.0766628E3,2.0673063E0,4.866426E0,2.8381739E0,1.3842793E0,2.8738487E0,4.3662567E0,1.6373713E1,1.0137389E0,1.2137588E3,1.0197976E0,1.2203269E1,6.9239607E0,2.8773327E0,2.9459839E1,6.0032716E0,1.1975802E0,1.0301671E1,1.2094787E0,9.517838E0,1.374775E1,1.4955572E1,2.641662E1,1.5183028E2,2.13176E0,1.06916E3,7.5026994E0,1.1556672E0,3.7107587E0,1.614617E0,1.2592317E0,1.0443391E0,3.3219175E0,1.2277954E0,1.5145917E1,1.1605106E3,5.3248207E1,3.1893075E0,3.7346532E0,1.4871625E0,1.3901702E0,1.7338474E0,2.7725992E1,3.09907E0,2.9042015E0,1.610021E0,8.69165E0,3.7153957E0,5.802442E0,1.2636037E0,1.2484147E1,9.220204E0,5.735368E0,1.654848E0,2.4761772E1,8.385439E1,6.7975876E1,1.1082875E0,1.0234724E0,1.1202819E0,1.0680398E3,5.620891E0,1.8818079E0,2.3921528E0,1.2753764E1,1.158258E3,2.252544E0,1.8024808E0,5.144573E1,1.2922459E0,1.8970615E0,2.703314E0,1.0313393E0,2.672344E1,1.0025522E0,1.6506726E0,1.4483974E0,7.524899E0,1.1667515E0,1.0815644E0,2.6338313E0,4.749139E0,1.053303E0,1.4350109E0,1.1049136E1,1.7861131E0,7.434091E0,4.004743E0,1.7306247E0,1.287141E0,2.347463E1,1.3627563E0,8.249164E1,2.351927E1,4.4456608E1,4.5212464E0,1.0996448E0,1.2777455E0,1.1144072E0,1.1204358E0,1.1633328E1,1.0156742E0,1.2368696E0,4.9946583E1,1.4991454E0,2.5552603E1,1.1708368E0,3.5269892E0,1.2221496E0,1.6303891E0,9.418747E0,1.6291047E0,2.3756385E0,8.078068E1,1.7109588E0,1.9111954E1,4.4073157E0,2.437052E0,4.2019554E1,1.178976E0,1.0454352E1,4.7625847E1,2.3207333E0,1.1127551E0,2.4439848E1,2.296726E0,1.6815228E1,2.92344E0,1.4838758E0,1.3654127E0,1.0716394E0,4.0961567E1,1.0579896E0,1.0804768E0,4.6545372E1,1.3161119E0,1.0046214E0,1.037953E0,2.3401896E1,1.2468212E0,1.0499047E0,1.1374111E1,5.441117E0,1.0619557E0,1.8614843E0,3.8403225E1,2.558341E0,4.5490894E1,1.0544778E0,3.9776456E0,1.4634713E0,3.6721386E1,1.6818377E0,1.4877337E0,1.0706072E0,4.4413094E1,1.0777988E0,1.0093203E0,2.9683254E0],"tree_param":{"num_deleted":"0","num_feature":"27","num_nodes":"187","size_leaf_vector":"0"}},{"base_weights":[2.4047203E-3,-1.0336549E0,1.0370957E0,-1.0932155E0,-4.561946E-1,4.5490032E-1,1.0767355E0,-1.0634594E-1,-1.0997092E0,2.8769186E-1,-7.760422E-1,8.014302E-1,-1.3213724E-2,1.082009E0,2.2021893E-1,-8.202889E-1,4.8122212E-1,-2.6129216E-1,-1.1011125E0,-2.179965E-1,7.628494E-1,-8.8098806E-1,4.7548732E-1,8.728769E-1,-3.3496916E-1,-3.8318828E-1,7.401482E-1,9.180756E-1,1.1054653E0,-5.210898E-1,8.193841E-1,8.878899E-1,-4.0601885E-1,-1.1052321E0,-7.6185447E-1,-5.051716E-1,9.945193E-1,-2.2056037E-1,8.4565073E-1,-9.775432E-1,-2.7921516E-1,-6.4749527E-1,8.575204E-1,-2.082757E-2,9.151135E-1,2.1916585E-1,-7.0486593E-1,-1.1147982E-1,9.178394E-1,9.4062144E-1,-3.0385366E-1,1.109533E0,5.261351E-1,-1.0544794E0,3.7612545E-1,-8.372351E-1,-1.1094915E0,-9.506345E-1,6.778336E-1,-1.0129145E0,-4.4871297E-2,1.6401645E-2,9.302327E-1,2.9398784E-1,-1.008236E0,-5.8274746E-1,8.538242E-1,1.2018002E0,3.8056735E-2,9.4378877E-1,1.21431775E-1,7.598126E-1,-3.1145796E-1,-8.741215E-1,6.6551805E-2,1.6956715E-1,1.0012535E0,1.015021E0,6.7174125E-1,-7.058772E-1,2.476067E-1,1.7464042E-1,1.1105518E0,7.9045033E-1,-1.6448328E-1,-1.0419531E0,1.9378284E-1,-1.1105052E0,-4.549903E-1,-3.018254E-1,-1.043601E0,-9.458043E-1,4.5575544E-1,4.4862065E-1,1.1683356E0,-1.0687444E0,-5.0530523E-1,-8.229009E-1,2.5211436E-1,1.0206094E0,5.161721E-1,8.87612E-1,2.0359772E-1,-9.194326E-1,3.4401923E-1,-9.6347004E-1,-1.5619305E-1,7.955772E-1,-6.8511206E-1,1.5143344E-1,1.0271894E0,-9.678934E-2,8.443104E-1,8.949559E-1,1.7103435E-1,-1.0962716E0,-3.7584928E-1,-6.4210105E-1,8.1540924E-1,-4.28609E-1,-1.1113483E0,-7.9888955E-2,-5.997588E-1,-4.373103E-1,8.59877E-1,8.455744E-1,-1.257516E-1,-2.7237064E-1,-1.0990419E0,-8.564601E-1,1.2294628E-1,7.216337E-2,-1.0076339E0,1.0552635E0,3.536791E-1,-2.2647277E-1,9.665836E-1,-1.026546E0,-2.3781914E-1,1.0357094E0,1.24554545E-1,-6.593156E-1,7.552801E-1,8.885707E-2,9.3891466E-1,9.9535406E-1,2.5970715E-1,-5.4247445E-1,3.529944E-1,1.666324E-1,-5.7533693E-1,7.0418316E-1,-6.390014E-1,3.4811968E-1,-6.7047834E-1,1.0444641E0,1.9642957E-1,-1.0810161E0,2.612419E-1,7.1268374E-1,-5.764375E-1,4.2277166E-1,1.0295217E0,6.5370464E-1,1.0773522E0,8.5790443E-1,-5.392674E-1,1.0785354E0,1.1155936E-1,9.574191E-1,1.1140965E-1,-5.7280844E-1,8.133807E-1],"categories":[],"categories_nodes":[],"categories_segments":[],"categories_sizes":[],"default_left":[1,1,1,1,1,1,1,1,1,1,1,1,1,1,1,0,1,0,1,1,1,1,1,1,0,1,1,1,1,1,0,0,0,1,1,1,0,0,1,1,1,0,1,0,1,1,1,0,1,1,1,1,1,0,0,1,1,1,0,0,1,0,1,0,1,1,0,0,0,1,0,1,1,1,1,0,0,1,1,0,0,0,0,1,0,1,1,1,1,0,0,0,1,1,0,1,1,1,0,1,1,0,0,0,0,1,0,0,0,0,1,1,1,0,0,0,0,0,0,0,0,0,0,0,1,0,1,1,0,0,1,0,0,0,0,1,0,0,0,1,0,1,0,1,1,0,0,0,0,0,0,0,0,0,0,1,0,0,0,0,0,1,1,1,0,0,0,0,0,0,1,0,0],"id":5,"left_children":[1,3,5,7,9,11,13,15,17,19,21,23,25,27,29,-1,31,-1,33,35,37,39,41,43,-1,45,47,49,51,53,-1,-1,-1,55,57,59,-1,-1,61,63,65,-1,67,-1,69,71,73,-1,75,77,79,81,83,-1,-1,85,87,89,-1,-1,91,-1,93,-1,95,97,-1,-1,-1,99,-1,101,103,105,107,-1,-1,109,111,-1,-1,-1,-1,113,-1,115,117,119,121,-1,-1,-1,123,125,-1,127,129,131,-1,133,135,-1,-1,-1,-1,137,-1,-1,-1,-1,139,141,143,-1,-1,-1,-1,-1,-1,-1,-1,-1,-1,-1,145,-1,147,149,-1,-1,151,-1,-1,-1,-1,153,-1,-1,-1,155,-1,157,-1,159,161,-1,-1,-1,-1,-1,-1,-1,-1,-1,-1,163,-1,-1,-1,-1,-1,165,167,169,-1,-1,-1,-1,-1,-1,171,-1,-1],"loss_changes":[2.195472E3,3.469751E1,2.3157837E1,5.823242E0,2.3396732E1,1.0887357E1,4.091675E0,3.4010415E0,7.956543E-1,7.3783402E0,9.400261E0,3.4219742E0,8.507614E0,2.6478271E0,3.5901368E0,0E0,2.0063348E0,0E0,4.4226074E-1,5.8362265E0,1.4646769E0,3.4132614E0,3.1035457E0,1.3984394E0,0E0,4.1163454E0,1.6245093E0,3.7330399E0,1.3682861E0,2.2125168E0,0E0,0E0,0E0,1.048584E-1,4.515423E0,3.004049E0,0E0,0E0,1.0147219E0,2.4143791E0,3.9957209E0,0E0,1.3260453E0,0E0,6.80048E-1,2.4975104E0,1.8294415E0,0E0,3.564396E-1,1.7808685E0,8.449271E-1,5.887451E-1,1.5314884E0,0E0,0E0,4.052705E0,8.4228516E-2,4.6963787E-1,0E0,0E0,3.9897263E0,0E0,1.0018854E0,0E0,1.0794144E0,1.9350901E0,0E0,0E0,0E0,5.7533073E-1,0E0,1.17431164E-1,2.1839592E0,5.676775E-1,2.3918595E0,0E0,0E0,8.371582E-1,4.01243E0,0E0,0E0,0E0,0E0,2.1750927E-1,0E0,1.4439583E-1,2.5321846E0,3.3203125E-2,1.18692935E-1,0E0,0E0,0E0,2.4500303E0,1.4802266E0,0E0,8.251343E-1,1.7845601E0,1.2179747E0,0E0,2.604561E-1,2.604766E0,0E0,0E0,0E0,0E0,2.0274162E-1,0E0,0E0,0E0,0E0,5.860748E-1,3.5328884E0,1.6536999E0,0E0,0E0,0E0,0E0,0E0,0E0,0E0,0E0,0E0,0E0,0E0,9.059739E-2,0E0,8.564669E-1,4.9987096E-1,0E0,0E0,2.0459006E0,0E0,0E0,0E0,0E0,1.1270916E0,0E0,0E0,0E0,4.7064972E-1,0E0,1.9702381E0,0E0,1.991904E0,5.700531E-1,0E0,0E0,0E0,0E0,0E0,0E0,0E0,0E0,0E0,0E0,4.625702E-1,0E0,0E0,0E0,0E0,0E0,2.5167322E0,6.7107964E-1,1.4730945E0,0E0,0E0,0E0,0E0,0E0,0E0,2.6633055E0,0E0,0E0],"parents":[2147483647,0,0,1,1,2,2,3,3,4,4,5,5,6,6,7,7,8,8,9,9,10,10,11,11,12,12,13,13,14,14,16,16,18,18,19,19,20,20,21,21,22,22,23,23,25,25,26,26,27,27,28,28,29,29,33,33,34,34,35,35,38,38,39,39,40,40,42,42,44,44,45,45,46,46,48,48,49,49,50,50,51,51,52,52,55,55,56,56,57,57,60,60,62,62,64,64,65,65,69,69,71,71,72,72,73,73,74,74,77,77,78,78,83,83,85,85,86,86,87,87,88,88,92,92,93,93,95,95,96,96,97,97,99,99,100,100,105,105,110,110,111,111,112,112,124,124,126,126,127,127,130,130,135,135,139,139,141,141,143,143,144,144,155,155,161,161,162,162,163,163,170,170],"right_children":[2,4,6,8,10,12,14,16,18,20,22,24,26,28,30,-1,32,-1,34,36,38,40,42,44,-1,46,48,50,52,54,-1,-1,-1,56,58,60,-1,-1,62,64,66,-1,68,-1,70,72,74,-1,76,78,80,82,84,-1,-1,86,88,90,-1,-1,92,-1,94,-1,96,98,-1,-1,-1,100,-1,102,104,106,108,-1,-1,110,112,-1,-1,-1,-1,114,-1,116,118,120,122,-1,-1,-1,124,126,-1,128,130,132,-1,134,136,-1,-1,-1,-1,138,-1,-1,-1,-1,140,142,144,-1,-1,-1,-1,-1,-1,-1,-1,-1,-1,-1,146,-1,148,150,-1,-1,152,-1,-1,-1,-1,154,-1,-1,-1,156,-1,158,-1,160,162,-1,-1,-1,-1,-1,-1,-1,-1,-1,-1,164,-1,-1,-1,-1,-1,166,168,170,-1,-1,-1,-1,-1,-1,172,-1,-1],"split_conditions":[6.787162E-1,5.0769746E-1,7.258584E-1,8.3690506E-1,9.23561E-1,6.969409E1,1.3162414E1,5.000266E-1,3.5810295E1,9.2876816E-1,9.873005E-1,7.256464E-1,9.650276E-1,7.307235E-1,9.5258224E-1,-2.4608667E-1,6.90541E1,-7.838765E-2,9.917179E-1,1.45E1,2.0783018E-2,3.99679E-1,2.9161727E-1,5.3929317E-1,-1.0049076E-1,7.285E0,2.7011186E-1,1.2418836E1,9.785224E-1,7.310574E-1,2.4581523E-1,2.66367E-1,-1.2180566E-1,9.1503453E-1,1.549688E-1,2.3154382E-2,2.983558E-1,-6.6168115E-2,1.5E0,5.080664E-1,9.4254357E-1,-1.9424859E-1,1.25614075E2,-6.2482716E-3,1.535E1,1.0203178E1,7.2325695E-1,-3.3443946E-2,5.2934967E-2,1.215E1,7.301831E-1,1.5491037E-1,1.149E1,-3.163438E-1,1.1283764E-1,1.55E1,4.451573E-1,9.473584E-3,2.033501E-1,-3.0387437E-1,8.4997696E-1,4.920494E-3,1.0604371E-1,8.819635E-2,2.5362808E-1,6.245304E-1,2.5614727E-1,3.605401E-1,1.1417021E-2,5.832406E-1,3.6429536E-2,6.75E0,3.9079413E-2,1.625E1,7.967034E-2,5.0870147E-2,3.0037606E-1,1.8055938E-1,1.195E1,-2.1176316E-1,7.428201E-2,5.239213E-2,3.3316556E-1,4.375E-1,-4.9344987E-2,6.72631E-1,5.000254E-1,4.18E0,1.2648392E2,-9.054762E-2,-3.130803E-1,-2.837413E-1,7.3425E1,9.452596E-2,3.5050067E-1,9.2491853E-1,1.918015E-2,3.4376606E-2,7.563431E-2,2.3081692E-2,6.144799E-1,2.662836E-1,6.107932E-2,-2.758298E-1,1.0320578E-1,2.5614387E-1,-4.6857916E-2,2.3867318E-1,-2.0553362E-1,4.5430034E-2,6.272959E-1,9.579644E-1,8.82075E-1,2.6848677E-1,5.131031E-2,-3.288815E-1,-1.12754785E-1,-1.9263032E-1,2.4462278E-1,-1.2858272E-1,-3.3340448E-1,-2.3966687E-2,-1.7992765E-1,-1.311931E-1,5.882155E-1,2.5367233E-1,1.15E1,6.3595E1,-3.297126E-1,-2.5693804E-1,4.6903396E-1,2.1649012E-2,-3.022902E-1,3.1657907E-1,1.0610373E-1,7.6190476E0,2.899751E-1,-3.0796382E-1,-7.134575E-2,7.307147E-1,3.7366364E-2,1.4001642E2,2.2658403E-1,7.9524845E-2,1.155E1,2.9860622E-1,7.791215E-2,-1.6274235E-1,1.0589833E-1,4.9989723E-2,-1.7260109E-1,2.1125495E-1,-1.9170044E-1,1.04435906E-1,-2.0114352E-1,7.9720485E-1,5.8928873E-2,-3.2430482E-1,7.8372575E-2,2.1380512E-1,-1.7293125E-1,1.3445E1,2.6418877E-1,4.1878548E1,3.2320565E-1,2.5737134E-1,-1.6178024E-1,3.2356066E-1,3.346781E-2,2.8722575E-1,1.5E0,-1.7184255E-1,2.4401422E-1],"split_indices":[26,26,26,20,21,19,17,26,19,1,1,26,1,26,1,0,19,0,1,0,22,3,3,1,0,13,3,17,21,26,0,0,0,21,5,22,0,0,0,26,1,0,23,0,10,17,26,0,6,10,26,3,15,0,0,0,6,25,0,0,1,0,6,0,6,26,0,0,0,7,0,13,4,14,5,0,0,3,12,0,0,0,0,6,0,2,26,11,23,0,0,0,8,5,0,21,22,4,0,25,7,0,0,0,0,6,0,0,0,0,6,1,1,0,0,0,0,0,0,0,0,0,0,0,7,0,0,8,0,0,2,0,0,0,0,14,0,0,0,26,0,23,0,5,14,0,0,0,0,0,0,0,0,0,0,1,0,0,0,0,0,15,6,19,0,0,0,0,0,0,0,0,0],"split_type":[0,0,0,0,0,0,0,0,0,0,0,0,0,0,0,0,0,0,0,0,0,0,0,0,0,0,0,0,0,0,0,0,0,0,0,0,0,0,0,0,0,0,0,0,0,0,0,0,0,0,0,0,0,0,0,0,0,0,0,0,0,0,0,0,0,0,0,0,0,0,0,0,0,0,0,0,0,0,0,0,0,0,0,0,0,0,0,0,0,0,0,0,0,0,0,0,0,0,0,0,0,0,0,0,0,0,0,0,0,0,0,0,0,0,0,0,0,0,0,0,0,0,0,0,0,0,0,0,0,0,0,0,0,0,0,0,0,0,0,0,0,0,0,0,0,0,0,0,0,0,0,0,0,0,0,0,0,0,0,0,0,0,0,0,0,0,0,0,0,0,0,0,0],"sum_hessian":[2.0460117E3,1.0223302E3,1.0236815E3,9.259342E2,9.6396034E1,6.605134E1,9.576302E2,6.166559E0,9.1976764E2,2.9014957E1,6.738108E1,3.7545536E1,2.8505804E1,9.515086E2,6.121574E0,2.6050894E0,3.56147E0,1.8497144E0,9.179179E2,1.4318086E1,1.4696871E1,6.2441204E1,4.939877E0,3.5542812E1,2.0027213E0,1.9446856E1,9.058949E0,1.24129E2,8.273796E2,2.7944665E0,3.3271074E0,2.4416196E0,1.1198503E0,9.046748E2,1.3243096E1,1.2047982E1,2.2701035E0,1.012146E0,1.3684725E1,5.32696E1,9.171603E0,1.077553E0,3.862324E0,1.6268301E0,3.3915985E1,6.8808575E0,1.2565997E1,1.6281708E0,7.430779E0,1.2210623E2,2.0227652E0,8.20702E2,6.67758E0,1.6426436E0,1.1518229E0,1.7244331E1,8.874305E2,1.2008207E1,1.2348896E0,5.157905E0,6.890077E0,1.377131E0,1.2307594E1,1.0533544E0,5.2216248E1,7.6168003E0,1.5548029E0,2.3911607E0,1.4711633E0,3.2550816E1,1.3651694E0,3.1942987E0,3.6865587E0,1.0195814E1,2.3701832E0,1.0494492E0,6.38133E0,9.346838E1,2.8637844E1,1.0079436E0,1.0148215E0,1.0811172E0,8.196209E2,4.7247553E0,1.9528247E0,1.4378703E1,2.8656287E0,8.8536237E2,2.0681083E0,2.0372124E0,9.970995E0,2.1434546E0,4.746623E0,5.0258737E0,7.28172E0,4.560447E1,6.6117764E0,5.926368E0,1.6904321E0,2.6418104E1,6.132709E0,2.1129959E0,1.0813029E0,1.703666E0,1.9828929E0,8.763192E0,1.4326222E0,1.1735532E0,1.1966299E0,1.4855273E0,9.198286E1,5.331835E0,2.330601E1,3.6620667E0,1.0626886E0,1.2697469E1,1.6812342E0,1.2081397E0,1.6574891E0,1.7222359E0,8.8364014E2,1.008049E0,1.0600592E0,1.4531624E0,3.2934604E0,2.6927319E0,2.333142E0,2.0375314E0,4.3566936E1,4.008193E0,2.6035833E0,1.1181407E0,4.8082275E0,2.4559698E1,1.8584073E0,2.5029676E0,3.6297417E0,7.680888E0,1.0823038E0,9.097669E1,1.0061665E0,3.347845E0,1.9839897E0,2.809585E0,2.0496424E1,2.1497426E0,1.1437179E0,1.176204E0,1.1569381E0,1.0157256E0,1.0218058E0,1.5199391E0,1.0836442E0,1.1851757E0,1.3177919E0,8.979555E1,1.181144E0,2.1765006E0,1.1713446E0,1.4132204E0,1.3963646E0,3.90688E0,1.6589544E1,8.591581E0,8.120397E1,2.7646604E0,1.1422195E0,1.5582603E1,1.0069404E0,5.016548E0,3.5750327E0,1.9035873E0,1.6714454E0],"tree_param":{"num_deleted":"0","num_feature":"27","num_nodes":"173","size_leaf_vector":"0"}},{"base_weights":[2.6654084E-3,-1.0018477E0,9.789457E-1,-1.0604018E0,-4.897025E-1,3.5812047E-1,1.036903E0,-1.3950406E-1,-1.0664871E0,-7.6155835E-1,1.7608023E-1,8.6036587E-1,6.548564E-2,8.34127E-1,1.0669522E0,-7.5434893E-1,4.3769336E-1,-7.227161E-1,-1.0729034E0,-8.605087E-1,3.439958E-1,-4.215976E-1,6.016564E-1,1.0319027E0,5.1702183E-1,-9.200019E-1,2.7479914E-1,8.7168044E-1,-4.3251818E-1,1.0691241E0,-6.481002E-2,9.0926296E-1,-3.526802E-1,-9.730808E-1,2.7171168E-1,-1.0772995E0,-7.3386174E-1,1.3527045E-1,-9.305668E-1,-5.1481473E-1,7.2762966E-1,-6.252369E-1,6.065704E-1,-2.6879035E-2,7.4787855E-1,-1.0578593E-1,9.2183346E-1,-7.3044784E-3,-1.0479536E0,-1.3486336E-1,7.231043E-1,9.6170795E-1,5.6632054E-1,-8.8119054E-1,3.30842E-1,1.0742611E0,4.5605272E-1,-1.0376114E0,-3.1769854E-1,-5.698696E-1,9.245336E-1,-1.0786092E0,-4.088739E-1,-9.9867105E-1,2.8822336E-2,-5.804332E-1,8.980927E-1,-1.051814E0,-4.848758E-1,1.0956087E0,-5.9301116E-2,1.217239E-1,-8.5241914E-1,3.826648E-1,-4.1174868E-1,9.3782514E-1,3.8232112E-1,-9.790391E-1,4.5801046E-1,5.726534E-1,-4.607151E-1,3.299876E-1,8.850953E-1,9.9150604E-1,4.1236147E-1,1.7810859E-1,1.001244E0,2.0612943E-1,1.0755484E0,-1.8775067E-1,7.4552083E-1,-6.3991207E-1,6.4174944E-1,-2.4801752E-1,-1.0665255E0,-8.9204806E-1,6.1555862E-2,-2.342315E-1,4.3014756E-1,-5.5032074E-3,-9.9672186E-1,3.6330804E-1,1.1563046E0,7.3871005E-1,-4.531175E-1,-1.3728839E-1,7.3347354E-1,-3.8380392E-2,8.4855926E-1,-3.7970807E-2,-8.752945E-1,8.992014E-1,-1.7455284E-1,1.187169E-1,1.0556433E0,4.985486E-1,1.0277804E0,-2.758897E-1,7.645342E-1,8.628462E-1,-1.128714E-1,1.0777453E0,4.9290586E-1,1.0365993E-1,8.845775E-1,-9.693483E-1,-2.052336E-1,-3.4607768E-1,5.758473E-1,-2.2609603E-1,7.149425E-1,-1.416845E-1,1.1407295E0,-6.381713E-1,6.07302E-1,2.7802098E-1,9.488737E-1,6.090178E-1,-2.592797E-1,-1.0321509E0,-6.412811E-2,-5.15438E-1,4.8121312E-1,-4.3231732E-1,6.364915E-1,8.998812E-1,-5.144701E-1,1.0416098E0,1.06243275E-1,-5.5445904E-1,5.703895E-1,-2.4984315E-1,8.0833274E-1,4.7331774E-1,-7.704673E-1,1.8597294E-2,8.8789505E-1,-5.128202E-1,6.016121E-1,-3.5214466E-1,-1.1705405E0,-7.164738E-1,-1.25865685E-2,1.0556154E0,1.1671408E-1,5.8514804E-1,-8.658286E-1,-1.6852178E-1,8.3331317E-1,-7.998946E-1,4.976716E-2,2.9885796E-1,1.0769662E0,-1.2907193E0,1.690513E-1,5.640212E-1,-1.2188614E-1,-1.488838E0,-3.6204576E-1],"categories":[],"categories_nodes":[],"categories_segments":[],"categories_sizes":[],"default_left":[1,1,1,1,1,1,1,1,1,1,1,1,1,1,1,0,1,1,1,1,1,1,1,0,1,1,1,1,1,1,0,0,0,1,1,1,1,1,1,0,1,1,0,1,1,1,0,0,0,1,1,1,1,0,0,1,1,0,0,0,0,0,0,0,1,0,0,1,1,0,0,1,1,0,0,1,1,0,1,1,1,1,1,1,1,1,0,0,1,0,1,0,0,0,0,1,1,0,0,0,0,1,0,1,0,0,0,1,1,1,1,0,1,1,0,1,1,0,0,0,1,0,1,0,0,0,0,1,1,0,0,0,0,0,0,0,0,0,1,1,0,1,0,0,0,0,0,1,0,1,1,0,0,0,0,0,0,1,0,0,0,0,0,1,0,0,1,0,0,0,0,1,0,1,0,0,0,0,0],"id":6,"left_children":[1,3,5,7,9,11,13,15,17,19,21,23,25,27,29,-1,31,33,35,37,39,41,43,-1,45,47,49,51,53,55,-1,-1,-1,57,59,61,63,65,67,-1,69,71,-1,73,75,77,-1,-1,-1,79,81,83,85,-1,-1,87,89,-1,-1,-1,-1,-1,-1,-1,91,-1,-1,93,95,-1,-1,97,99,-1,-1,101,103,-1,105,107,109,111,113,115,117,119,-1,-1,121,-1,123,-1,-1,-1,-1,125,127,-1,-1,-1,-1,129,-1,131,-1,-1,-1,133,135,137,139,-1,141,143,-1,145,147,-1,-1,-1,149,-1,151,-1,-1,-1,-1,153,155,-1,-1,-1,-1,-1,-1,-1,-1,-1,157,159,-1,161,-1,-1,-1,-1,-1,163,-1,165,167,-1,-1,-1,-1,-1,-1,169,-1,-1,-1,-1,-1,171,-1,-1,173,-1,-1,-1,-1,175,-1,177,-1,-1,-1,-1,-1],"loss_changes":[1.5522019E3,2.2874695E1,2.8509705E1,3.7695312E0,1.4957312E1,1.0241061E1,3.580017E0,2.3674152E0,7.5634766E-1,6.6781425E0,6.499995E0,9.807682E-1,9.607718E0,5.0986633E0,1.6309814E0,0E0,1.6601238E0,4.19516E0,2.2241211E-1,3.8814049E0,2.1890037E0,2.6408165E0,1.3762493E0,0E0,2.76243E0,9.470277E-1,7.108771E0,2.1147385E0,1.4993842E0,1.5073242E0,0E0,0E0,0E0,2.130022E-1,2.7009497E0,1.4459229E-1,2.4194255E0,2.9298005E0,2.2147217E0,0E0,1.2872608E0,1.717272E0,0E0,7.4867463E-1,4.750762E-1,2.9400895E0,0E0,0E0,0E0,5.057048E0,8.787546E-1,7.906723E-1,3.9513488E0,0E0,0E0,4.804077E-1,1.4458579E0,0E0,0E0,0E0,0E0,0E0,0E0,0E0,2.0594628E0,0E0,0E0,1.940918E-1,2.8668914E0,0E0,0E0,4.402627E-1,9.008112E-1,0E0,0E0,4.851861E-1,2.0596528E0,0E0,7.1672535E-1,1.2129831E0,2.5586965E0,2.155738E0,1.4988003E0,7.177963E-1,1.5397491E0,2.9146657E0,0E0,0E0,2.7130127E-1,0E0,3.5770988E-1,0E0,0E0,0E0,0E0,1.8897581E-1,1.5267236E0,0E0,0E0,0E0,0E0,8.75679E-1,0E0,1.7335212E0,0E0,0E0,0E0,1.6015965E0,1.4745235E-2,1.3560342E0,8.7806463E-1,0E0,1.2599847E0,1.2419705E0,0E0,3.1695762E0,6.93985E-1,0E0,0E0,0E0,3.5770307E0,0E0,1.1854818E0,0E0,0E0,0E0,0E0,1.8101859E0,5.3559554E-1,0E0,0E0,0E0,0E0,0E0,0E0,0E0,0E0,0E0,1.8225299E0,1.6678429E-1,0E0,3.4089845E-1,0E0,0E0,0E0,0E0,0E0,6.8110657E-1,0E0,3.015952E0,1.0604497E0,0E0,0E0,0E0,0E0,0E0,0E0,9.9238575E-1,0E0,0E0,0E0,0E0,0E0,6.643982E-1,0E0,0E0,2.837749E0,0E0,0E0,0E0,0E0,4.100267E-1,0E0,2.593379E-1,0E0,0E0,0E0,0E0,0E0],"parents":[2147483647,0,0,1,1,2,2,3,3,4,4,5,5,6,6,7,7,8,8,9,9,10,10,11,11,12,12,13,13,14,14,16,16,17,17,18,18,19,19,20,20,21,21,22,22,24,24,25,25,26,26,27,27,28,28,29,29,33,33,34,34,35,35,36,36,37,37,38,38,40,40,41,41,43,43,44,44,45,45,49,49,50,50,51,51,52,52,55,55,56,56,64,64,67,67,68,68,71,71,72,72,75,75,76,76,78,78,79,79,80,80,81,81,82,82,83,83,84,84,85,85,88,88,90,90,95,95,96,96,101,101,103,103,107,107,108,108,109,109,110,110,112,112,113,113,115,115,116,116,120,120,122,122,127,127,128,128,138,138,139,139,141,141,147,147,149,149,150,150,157,157,163,163,166,166,171,171,173,173],"right_children":[2,4,6,8,10,12,14,16,18,20,22,24,26,28,30,-1,32,34,36,38,40,42,44,-1,46,48,50,52,54,56,-1,-1,-1,58,60,62,64,66,68,-1,70,72,-1,74,76,78,-1,-1,-1,80,82,84,86,-1,-1,88,90,-1,-1,-1,-1,-1,-1,-1,92,-1,-1,94,96,-1,-1,98,100,-1,-1,102,104,-1,106,108,110,112,114,116,118,120,-1,-1,122,-1,124,-1,-1,-1,-1,126,128,-1,-1,-1,-1,130,-1,132,-1,-1,-1,134,136,138,140,-1,142,144,-1,146,148,-1,-1,-1,150,-1,152,-1,-1,-1,-1,154,156,-1,-1,-1,-1,-1,-1,-1,-1,-1,158,160,-1,162,-1,-1,-1,-1,-1,164,-1,166,168,-1,-1,-1,-1,-1,-1,170,-1,-1,-1,-1,-1,172,-1,-1,174,-1,-1,-1,-1,176,-1,178,-1,-1,-1,-1,-1],"split_conditions":[6.466947E-1,5.05531E-1,7.262416E-1,8.3690506E-1,2.1100635E-2,9.207516E-1,7.307235E-1,5.000266E-1,9.1503453E-1,9.873005E-1,9.0819955E-1,9.1187024E-1,2.3568732E-1,1.2418836E1,1.4172264E1,-2.263047E-1,6.6312775E1,1.55E1,9.917179E-1,4.9049997E0,2.9161727E-1,1.5E1,5.124494E-1,3.0957082E-1,8.52E0,9.803259E0,9.4458306E-1,7.713049E1,2.6189095E-1,9.785224E-1,-1.9443007E-2,2.727789E-1,-1.0580406E-1,6.72436E-1,3.577755E-1,4.451573E-1,9.164104E-2,3.226615E-1,1.9104857E-2,-1.5444443E-1,1.0078256E-1,4.495E0,1.8197113E-1,9.389552E-2,9.391718E0,7.0996153E-1,2.7655005E-1,-2.1913436E-3,-3.143861E-1,8.9E0,9.7124714E-1,1.1024902E1,9.681101E-1,-2.6435718E-1,9.9252604E-2,1.5491037E-1,9.0527403E-1,-3.112834E-1,-9.530956E-2,-1.7096087E-1,2.7736008E-1,-3.2358277E-1,-1.2266217E-1,-2.9960132E-1,5.0053465E-1,-1.7412996E-1,2.694278E-1,-4.234944E-2,6.1340872E-2,3.2868263E-1,-1.7790336E-2,6.785714E0,3.938865E1,1.1479945E-1,-1.23524606E-1,3.5E0,3.86635E-1,-2.9371172E-1,1.21716894E-1,4.95E0,9.2841744E-2,9.2651683E-1,4.8208117E0,7.241254E-1,6.3391994E1,4.9968887E-2,3.003732E-1,6.183883E-2,1.3188268E1,-5.63252E-2,6.17E0,-1.9197363E-1,1.9252484E-1,-7.440526E-2,-3.1995764E-1,5.785252E-1,9.32312E-1,-7.026945E-2,1.2904428E-1,-1.6509623E-3,-2.9901657E-1,1.5532013E2,3.468914E-1,3.433627E-1,-1.3593525E-1,-4.118652E-2,2.2004206E-1,6.779322E-1,7.1513104E-1,7.525E0,9.059849E-1,2.6976043E-1,1.8707153E-1,9.165218E-1,3.16693E-1,4.1878548E1,5.5024743E-1,-8.276691E-2,2.2936027E-1,2.5885388E-1,3.8865417E-1,3.233236E-1,9.6234906E-1,3.109798E-2,2.6537326E-1,-2.908045E-1,-6.157008E-2,1.095E1,5.775864E-1,-6.782881E-2,2.1448277E-1,-4.2505354E-2,3.4221888E-1,-1.914514E-1,1.8219061E-1,8.34063E-2,2.8466213E-1,1.8270534E-1,7.232636E-1,9.253224E-1,-1.9238433E-2,6.5E0,1.4436394E-1,-1.296952E-1,1.9094746E-1,2.6996437E-1,-1.5434104E-1,1.6558547E-1,3.1872984E-2,8.705947E-1,8.3886003E-1,-7.4952945E-2,2.4249983E-1,1.4199533E-1,-2.311402E-1,5.5791885E-3,2.6636854E-1,8.9844704E-1,1.8048364E-1,-1.056434E-1,-3.5116214E-1,-2.1494216E-1,-3.7759708E-3,-5.7726547E-2,3.5014227E-2,1.7554441E-1,1.21769905E-1,-5.0556537E-2,2.4999397E-1,-2.3996837E-1,1.4930149E-2,9.9622294E-2,3.2308987E-1,1.3475E1,5.0715394E-2,1.6920638E-1,-3.6565844E-2,-4.466514E-1,-1.0861374E-1],"split_indices":[26,26,26,20,22,21,26,26,21,1,1,21,3,17,17,0,19,0,1,11,3,0,26,0,15,17,1,19,3,21,0,0,0,2,16,6,4,3,22,0,4,11,0,5,17,26,0,0,0,10,1,17,1,0,0,3,1,0,0,0,0,0,0,0,26,0,0,6,4,0,0,14,19,0,0,0,16,0,6,12,24,21,17,1,19,4,0,0,17,0,15,0,0,0,0,16,1,0,0,0,0,23,0,16,0,0,0,1,26,13,20,0,6,16,0,19,4,0,0,0,3,0,1,0,0,0,0,10,2,0,0,0,0,0,0,0,0,0,26,21,0,0,0,0,0,0,0,24,0,20,1,0,0,0,0,0,0,1,0,0,0,0,0,6,0,0,5,0,0,0,0,5,0,14,0,0,0,0,0],"split_type":[0,0,0,0,0,0,0,0,0,0,0,0,0,0,0,0,0,0,0,0,0,0,0,0,0,0,0,0,0,0,0,0,0,0,0,0,0,0,0,0,0,0,0,0,0,0,0,0,0,0,0,0,0,0,0,0,0,0,0,0,0,0,0,0,0,0,0,0,0,0,0,0,0,0,0,0,0,0,0,0,0,0,0,0,0,0,0,0,0,0,0,0,0,0,0,0,0,0,0,0,0,0,0,0,0,0,0,0,0,0,0,0,0,0,0,0,0,0,0,0,0,0,0,0,0,0,0,0,0,0,0,0,0,0,0,0,0,0,0,0,0,0,0,0,0,0,0,0,0,0,0,0,0,0,0,0,0,0,0,0,0,0,0,0,0,0,0,0,0,0,0,0,0,0,0,0,0,0,0],"sum_hessian":[1.5807709E3,7.7910693E2,8.0166394E2,6.9820935E2,8.089758E1,6.906252E1,7.3260144E2,4.740538E0,6.934688E2,5.7340256E1,2.3557325E1,2.4711105E1,4.4351414E1,9.826347E1,6.3433795E2,2.1467986E0,2.5937395E0,1.4788123E1,6.786807E2,5.283318E1,4.507075E0,9.801491E0,1.3755836E1,1.5141078E1,9.570026E0,7.17497E0,3.7176445E1,9.573689E1,2.5265813E0,6.331782E2,1.1597536E0,1.5302858E0,1.0634537E0,1.1830942E1,2.9571817E0,6.678439E2,1.083686E1,3.4115705E0,4.942161E1,1.286082E0,3.2209926E0,8.508239E0,1.2932522E0,2.750217E0,1.1005619E1,4.060923E0,5.509103E0,1.0121624E0,6.1628075E0,1.9790762E1,1.7385683E1,7.227813E1,2.3458763E1,1.4940697E0,1.0325115E0,6.271709E2,6.0073094E0,1.0239518E1,1.5914232E0,1.3473375E0,1.6098442E0,6.6592535E2,1.9184972E0,7.814273E0,3.0225866E0,1.883505E0,1.5280656E0,3.778303E1,1.163858E1,1.9274408E0,1.2935518E0,2.0924842E0,6.4157543E0,1.3351735E0,1.4150435E0,6.2122283E0,4.7933903E0,1.3042635E0,2.7566597E0,6.0017824E0,1.378898E1,5.959749E0,1.1425934E1,6.779581E1,4.4823184E0,1.3139756E1,1.0319007E1,1.1672933E0,6.260036E2,1.9722471E0,4.0350623E0,1.4244325E0,1.5981541E0,1.0000765E0,3.6782955E1,6.306677E0,5.331903E0,1.0830622E0,1.0094221E0,1.0851456E0,5.3306084E0,2.4451962E0,3.7670321E0,3.4411955E0,1.3521945E0,1.0307441E0,1.7259157E0,2.1348155E0,3.8669667E0,7.367733E0,6.421247E0,2.432841E0,3.526908E0,2.388592E0,9.037342E0,5.6573963E0,6.2138412E1,1.5905374E0,2.891781E0,3.3324602E0,9.807296E0,6.228056E2,3.1980238E0,1.0293262E0,3.0057359E0,5.2989206E0,1.0077562E0,3.156836E0,2.1750672E0,1.0470917E0,1.3981045E0,1.2817724E0,2.1594234E0,1.1127688E0,1.0220467E0,1.1421998E0,2.724767E0,1.431348E0,5.9363847E0,5.1524777E0,1.2687695E0,2.461397E0,1.065511E0,1.2370871E0,1.151505E0,4.132061E0,1.5253354E0,6.109133E1,1.0470804E0,6.071701E0,3.735595E0,1.0152626E0,2.1827612E0,1.0378001E0,2.119036E0,1.1611323E0,1.0139347E0,4.89815E0,1.0382348E0,1.4706621E0,3.6818154E0,1.454913E0,1.0064839E0,6.0040802E1,1.0505303E0,1.1142592E0,4.957442E0,1.0746062E0,2.6609888E0,2.9639208E0,1.9342293E0,2.059003E0,5.79818E1,3.339235E0,1.6182065E0,1.0541312E0,1.004872E0,2.2549808E0,1.0842544E0],"tree_param":{"num_deleted":"0","num_feature":"27","num_nodes":"179","size_leaf_vector":"0"}},{"base_weights":[3.8134742E-3,-9.6474034E-1,9.3888754E-1,-1.0328451E0,-4.2633665E-1,3.0525208E-1,1.0022949E0,-4.371572E-1,-1.0455326E0,-7.6654655E-1,5.680981E-2,9.113388E-1,9.046264E-2,7.691352E-1,1.0402174E0,3.2585922E-1,-7.720361E-1,-1.0507975E0,-6.725038E-1,-1.6019157E-1,-9.580218E-1,-3.1634057E-1,4.9962413E-1,2.5964704E-1,9.6293586E-1,-2.2875038E-1,5.114439E-1,8.112438E-1,-4.1336405E-1,1.043696E0,-2.2579769E-2,-5.5017555E-1,7.33503E-1,-1.9027892E-1,-9.66333E-1,-1.0524962E0,-3.8678178E-1,-8.2559747E-1,3.3519772E-1,-6.579692E-1,2.0305517E-1,-1.0021982E0,-9.0216644E-2,-4.7581878E-1,6.676065E-1,6.344295E-1,-1.5417784E-1,2.723544E-1,9.993321E-1,1.7532972E-1,-6.88263E-1,-1.0837952E-1,6.7946064E-1,9.4541633E-1,5.605795E-1,-8.052949E-1,2.4169241E-1,1.0492698E0,3.255699E-1,8.812909E-1,1.951107E-1,-6.579268E-1,3.5490096E-1,-9.4662315E-1,-1.6543674E-1,4.510245E-2,-8.525639E-1,8.5208875E-1,-3.968927E-1,-7.351409E-2,-1.0335656E0,-6.2900484E-1,5.8689934E-1,4.0250438E-1,9.705365E-1,-4.3570986E-1,2.2399683E-1,3.8896146E-1,-4.9691352E-1,-8.1652576E-1,2.9533508E-1,4.6832117E-1,-6.11673E-1,8.4587246E-1,1.8866138E-1,5.4270506E-1,1.0107081E0,7.958864E-2,7.6844025E-1,1.2155885E-1,1.0509831E0,8.3155316E-1,-3.934714E-1,9.971847E-1,2.7512088E-1,-7.0048934E-1,2.4690594E-1,4.180231E-2,-7.916077E-1,6.366943E-1,-5.2890027E-1,1.1693577E0,1.9979244E-1,-9.256388E-2,8.3745086E-1,-7.861526E-1,6.1657634E-2,-4.034097E-2,-9.095757E-1,4.0305308E-1,9.7401994E-1,-5.6354076E-1,5.091196E-1,7.343092E-1,-3.1402934E-1,1.9209553E-1,1.0265346E0,8.0289066E-1,-2.9195353E-1,8.7174916E-1,-2.5200391E-2,1.0529326E0,3.914125E-1,-3.736414E-1,3.9537415E-1,1.2943213E-1,-9.085706E-1,1.9806322E-2,7.3916894E-1,6.8970966E-1,-4.2214683E-1,-9.7854465E-1,-1.6822174E-1,-6.6764556E-2,7.150185E-1,-1.0686149E-1,7.522884E-1,9.037735E-1,1.1562533E-1,-6.374602E-1,3.3325842E-1,9.084315E-1,1.261293E-1,6.059109E-1,-6.6181546E-1,4.849935E-1,1.0548435E0,-9.810393E-1,-3.0839267E-1,1.4469692E-1,8.8783103E-1,-7.9962295E-1,2.3744722E-1,1.9102955E-1,-8.966783E-1,6.7877114E-1,-2.0929983E-1,9.782392E-1,4.3542752E-1,6.2278366E-1,8.059634E-2,-2.5236806E-1,-1.0478437E0,-1.01036556E-1,7.0735836E-1],"categories":[],"categories_nodes":[],"categories_segments":[],"categories_sizes":[],"default_left":[1,1,1,1,1,1,1,1,1,1,1,1,1,1,1,1,1,1,1,1,1,1,1,0,1,1,1,1,1,1,0,0,1,1,0,0,0,1,0,1,1,1,0,1,0,1,1,0,0,1,1,1,1,1,1,0,0,1,1,0,0,0,0,0,0,0,0,1,1,0,0,1,0,1,1,0,0,1,1,1,0,0,0,1,1,1,1,1,1,0,1,0,0,0,0,0,0,1,1,1,0,0,0,1,0,0,0,0,1,1,0,0,1,1,0,0,0,0,1,1,1,1,0,0,0,0,1,0,1,0,1,0,0,0,0,0,0,0,0,1,1,1,0,0,0,1,0,0,0,0,0,0,0,0,1,0,0,0,1,0,0,0,0,0,0],"id":7,"left_children":[1,3,5,7,9,11,13,15,17,19,21,23,25,27,29,31,33,35,37,39,41,43,45,-1,47,49,51,53,55,57,-1,-1,59,61,-1,-1,-1,63,-1,65,67,69,-1,71,-1,73,75,-1,-1,77,79,81,83,85,87,-1,-1,89,91,-1,-1,-1,-1,-1,-1,-1,-1,93,95,-1,-1,97,-1,99,101,-1,-1,103,105,107,-1,-1,-1,109,111,113,115,117,119,-1,121,-1,-1,-1,-1,-1,-1,123,125,127,-1,-1,-1,129,-1,-1,-1,-1,131,133,-1,-1,135,137,-1,-1,-1,-1,139,141,143,145,-1,-1,-1,-1,147,-1,149,-1,151,-1,-1,-1,-1,-1,-1,-1,-1,153,155,157,-1,-1,-1,159,-1,-1,-1,-1,-1,-1,-1,-1,161,-1,-1,-1,163,-1,-1,-1,-1,-1,-1],"loss_changes":[1.1039941E3,2.151538E1,2.4612244E1,3.5548706E0,1.1375156E1,7.4493046E0,4.1810303E0,3.5193837E0,3.1274414E-1,4.5512867E0,5.018739E0,2.553091E-1,6.0066686E0,4.450573E0,1.8045044E0,2.0477147E0,8.543277E-1,1.6821289E-1,1.8196945E0,2.1092007E0,1.082552E0,2.9187877E0,1.3176389E0,0E0,6.856537E-2,4.8773603E0,2.0741782E0,2.1653786E0,1.0943099E0,1.5802612E0,0E0,0E0,1.12155914E-1,1.137244E0,0E0,0E0,0E0,5.601592E-1,0E0,7.0135236E-1,3.0953298E0,7.692547E-1,0E0,2.7863605E0,0E0,5.1904106E-1,4.3514028E-1,0E0,0E0,2.26532E0,1.7789874E0,1.7258649E0,1.086019E0,7.8573227E-1,2.9780083E0,0E0,0E0,6.288452E-1,2.2001102E0,0E0,0E0,0E0,0E0,0E0,0E0,0E0,0E0,3.699279E-2,1.0254781E0,0E0,0E0,1.5012712E0,0E0,2.215619E0,3.879397E-1,0E0,0E0,2.5631108E0,6.8153626E-1,7.6131773E-1,0E0,0E0,0E0,2.3741913E-1,1.5279988E0,1.7472091E0,3.5349274E-1,2.9992094E0,1.7527695E0,0E0,1.986084E-1,0E0,0E0,0E0,0E0,0E0,0E0,6.730057E-1,1.2901301E0,4.491589E-1,0E0,0E0,0E0,1.9543376E0,0E0,0E0,0E0,0E0,3.374834E-1,6.62975E-1,0E0,0E0,6.998944E-1,7.185254E-1,0E0,0E0,0E0,0E0,1.8390582E0,3.9706326E-1,1.7683616E0,1.7700195E-3,0E0,0E0,0E0,0E0,1.2293625E-1,0E0,4.2513013E-1,0E0,1.4743513E0,0E0,0E0,0E0,0E0,0E0,0E0,0E0,0E0,1.2865918E0,7.676003E-1,1.5744019E-1,0E0,0E0,0E0,1.4133763E-1,0E0,0E0,0E0,0E0,0E0,0E0,0E0,0E0,1.3792992E-1,0E0,0E0,0E0,6.658428E-1,0E0,0E0,0E0,0E0,0E0,0E0],"parents":[2147483647,0,0,1,1,2,2,3,3,4,4,5,5,6,6,7,7,8,8,9,9,10,10,11,11,12,12,13,13,14,14,15,15,16,16,17,17,18,18,19,19,20,20,21,21,22,22,24,24,25,25,26,26,27,27,28,28,29,29,32,32,33,33,37,37,39,39,40,40,41,41,43,43,45,45,46,46,49,49,50,50,51,51,52,52,53,53,54,54,57,57,58,58,67,67,68,68,71,71,73,73,74,74,77,77,78,78,79,79,83,83,84,84,85,85,86,86,87,87,88,88,90,90,97,97,98,98,99,99,103,103,108,108,109,109,112,112,113,113,118,118,119,119,120,120,121,121,126,126,128,128,130,130,139,139,140,140,141,141,145,145,154,154,158,158],"right_children":[2,4,6,8,10,12,14,16,18,20,22,24,26,28,30,32,34,36,38,40,42,44,46,-1,48,50,52,54,56,58,-1,-1,60,62,-1,-1,-1,64,-1,66,68,70,-1,72,-1,74,76,-1,-1,78,80,82,84,86,88,-1,-1,90,92,-1,-1,-1,-1,-1,-1,-1,-1,94,96,-1,-1,98,-1,100,102,-1,-1,104,106,108,-1,-1,-1,110,112,114,116,118,120,-1,122,-1,-1,-1,-1,-1,-1,124,126,128,-1,-1,-1,130,-1,-1,-1,-1,132,134,-1,-1,136,138,-1,-1,-1,-1,140,142,144,146,-1,-1,-1,-1,148,-1,150,-1,152,-1,-1,-1,-1,-1,-1,-1,-1,154,156,158,-1,-1,-1,160,-1,-1,-1,-1,-1,-1,-1,-1,162,-1,-1,-1,164,-1,-1,-1,-1,-1,-1],"split_conditions":[6.466947E-1,5.05531E-1,7.258584E-1,8.490434E-1,1.9856554E-2,8.55687E-1,7.307235E-1,5.4019264E1,9.917179E-1,7.971546E0,9.2944837E-1,1.8651208E-2,9.4760656E-1,1.2418836E1,9.8125E-1,5.0002354E-1,4.293983E-1,4.451573E-1,1.523141E-1,8.0724734E-1,9.873005E-1,1.9633005E2,7.838178E1,7.7894114E-2,6.6795397E-1,9.057338E0,2.6954085E-1,8.860001E0,9.370874E-1,1.3188268E1,-6.773931E-3,-1.6505267E-1,1.4169354E2,1.16E1,-2.8989992E-1,-3.1574887E-1,-1.1603454E-1,1.05E1,1.0055932E-1,4.477273E0,4.439095E-2,8.685519E-1,-2.7064994E-2,1.55E1,2.0028195E-1,7.713784E-2,9.489161E-2,8.170632E-2,2.9979962E-1,1.15E1,2.45E1,8.020671E1,5.338901E-1,5.4317616E-2,9.328611E-1,-2.4158847E-1,7.2507724E-2,1.5491037E-1,4.4071096E-1,2.6438728E-1,5.853321E-2,-1.9737805E-1,1.06470294E-1,-2.8398696E-1,-4.9631026E-2,1.3530736E-2,-2.557692E-1,8.888069E-2,5.8527744E-1,-2.2054227E-2,-3.100697E-1,4.6949997E0,1.7606981E-1,7.12E0,1.22811064E-1,-1.3071297E-1,6.719905E-2,7.702381E0,8.9844704E-1,9.2106694E-1,8.860053E-2,1.4049636E-1,-1.835019E-1,9.699046E-1,4.9067726E0,5.064998E-2,1.8055938E-1,5.287182E1,2.6357237E-1,3.6467656E-2,1.4864847E2,2.4946596E-1,-1.1804142E-1,2.991554E-1,8.2536265E-2,-2.1014681E-1,7.407179E-2,8.638279E-1,8.812479E-2,4.4688374E-1,-1.5867008E-1,3.508073E-1,5.9937734E-2,5.96E0,2.5123528E-1,-2.3584579E-1,1.849729E-2,-1.2102292E-2,1.2186841E2,1.9409632E-2,2.92206E-1,-1.6906223E-1,3.4743804E-1,6.1362E1,-9.420881E-2,5.762866E-2,3.079604E-1,2.4086721E-1,4.1509134E-1,2.85E1,7.304471E-1,2.1448562E-1,1.1742375E-1,-1.1209243E-1,1.1861225E-1,3.882964E-2,9.1806424E-1,5.9418967E-3,7.4865E1,2.069129E-1,7.755E0,-2.935634E-1,-5.0466526E-2,-2.0029368E-2,2.1450557E-1,-3.2058448E-2,2.2568654E-1,2.7113205E-1,3.46876E-2,9.600578E-2,1.1695E1,1.8533775E-1,3.783879E-2,1.8177328E-1,-1.9854465E-1,4.544904E-2,3.1645307E-1,-2.943118E-1,-9.251781E-2,4.340908E-2,2.6634932E-1,-2.398869E-1,7.123417E-2,5.7308868E-2,9.85E0,2.0363136E-1,-6.2789954E-2,2.9347175E-1,5.2495E1,1.8683511E-1,2.4178904E-2,-7.571042E-2,-3.143531E-1,-3.0310968E-2,2.1220751E-1],"split_indices":[26,26,26,20,22,20,26,19,1,17,1,4,1,17,7,26,7,6,5,1,1,23,19,0,26,17,3,11,1,17,0,0,23,14,0,0,0,0,0,14,4,20,0,0,0,4,24,0,0,10,0,19,7,5,1,0,0,3,7,0,0,0,0,0,0,0,0,24,26,0,0,11,0,13,5,0,0,14,1,21,0,0,0,1,17,5,3,19,6,0,19,0,0,0,0,0,0,1,24,7,0,0,0,15,0,0,0,0,19,22,0,0,3,19,0,0,0,0,3,0,26,1,0,0,0,0,1,0,8,0,13,0,0,0,0,0,0,0,0,4,11,6,0,0,0,5,0,0,0,0,0,0,0,0,9,0,0,0,8,0,0,0,0,0,0],"split_type":[0,0,0,0,0,0,0,0,0,0,0,0,0,0,0,0,0,0,0,0,0,0,0,0,0,0,0,0,0,0,0,0,0,0,0,0,0,0,0,0,0,0,0,0,0,0,0,0,0,0,0,0,0,0,0,0,0,0,0,0,0,0,0,0,0,0,0,0,0,0,0,0,0,0,0,0,0,0,0,0,0,0,0,0,0,0,0,0,0,0,0,0,0,0,0,0,0,0,0,0,0,0,0,0,0,0,0,0,0,0,0,0,0,0,0,0,0,0,0,0,0,0,0,0,0,0,0,0,0,0,0,0,0,0,0,0,0,0,0,0,0,0,0,0,0,0,0,0,0,0,0,0,0,0,0,0,0,0,0,0,0,0,0,0,0],"sum_hessian":[1.2169811E3,5.9777325E2,6.192079E2,5.298341E2,6.793915E1,5.6855946E1,5.623519E2,1.1788953E1,5.1804517E2,3.952257E1,2.8416578E1,1.4028313E1,4.2827633E1,8.1646255E1,4.807057E2,3.604069E0,8.184883E0,5.0904367E2,9.001484E0,9.925999E0,2.9596571E1,1.5576339E1,1.28402405E1,1.4717482E0,1.2556564E1,2.4617676E1,1.8209957E1,7.914198E1,2.5042746E0,4.7915533E2,1.5503684E0,1.0334709E0,2.5705981E0,2.5447626E0,5.640121E0,5.071612E2,1.8824543E0,7.971185E0,1.0302985E0,3.8452618E0,6.080737E0,2.8015547E1,1.5810237E0,1.3848234E1,1.7281046E0,1.0669882E1,2.1703587E0,1.0533499E0,1.1503215E1,1.3427991E1,1.1189684E1,3.9591973E0,1.425076E1,4.9743977E1,2.9398005E1,1.4233247E0,1.08095E0,4.7500745E2,4.147884E0,1.5172274E0,1.0533707E0,1.2584633E0,1.2862995E0,6.369543E0,1.6016419E0,1.0001042E0,2.8451576E0,2.7190032E0,3.361734E0,1.0245876E0,2.699096E1,1.2460259E1,1.3879741E0,7.613713E0,3.0561695E0,1.1569377E0,1.0134209E0,1.0509562E1,2.9184294E0,1.0049121E1,1.1405635E0,1.8774273E0,2.08177E0,1.0102066E1,4.1486945E0,8.23898E0,4.1504997E1,9.288128E0,2.0109877E1,1.0082562E0,4.7399918E2,2.3428004E0,1.8050836E0,1.5906636E0,1.1283396E0,2.2246141E0,1.1371198E0,2.576012E0,9.884248E0,6.3368154E0,1.2768974E0,2.0183384E0,1.0378311E0,5.45083E0,5.0587316E0,1.6543429E0,1.2640864E0,1.2291969E0,8.819923E0,3.1976547E0,6.904411E0,1.0128094E0,3.135885E0,6.849928E0,1.3890525E0,1.0363834E0,4.0468613E1,2.7580023E0,6.5301256E0,1.7706577E1,2.4032989E0,4.720077E2,1.9915068E0,1.1582805E0,1.4177314E0,1.1017514E0,8.782496E0,1.0726765E0,5.2641387E0,1.2918699E0,4.1589603E0,7.776522E0,1.0434011E0,1.5896463E0,1.6080084E0,1.0462168E0,2.0896683E0,5.015364E0,1.8345635E0,4.1932483E0,2.336877E0,1.6668196E1,1.0383829E0,1.2310864E0,1.1722126E0,2.4372745E0,4.695704E2,7.2700863E0,1.5124103E0,1.4478371E0,3.8163016E0,2.5101452E0,1.6488152E0,1.0620081E0,3.1312404E0,1.2743114E0,1.0625656E0,1.3593825E1,3.0743697E0,1.4150834E0,1.022191E0,1.1023196E0,2.0289207E0,1.2455673E0,1.8288023E0],"tree_param":{"num_deleted":"0","num_feature":"27","num_nodes":"165","size_leaf_vector":"0"}},{"base_weights":[5.1964163E-3,-9.295455E-1,9.0028805E-1,-1.0096779E0,-3.6711365E-1,4.7813573E-1,1.0094337E0,-4.508015E-1,-1.0284233E0,-7.020733E-1,5.98116E-2,9.4518995E-1,2.8471604E-1,1.0171393E0,2.2738796E-1,-9.277271E-1,5.7439398E-2,-1.0354575E0,-5.947643E-1,-9.5158654E-1,-1.9083393E-1,-7.260592E-1,2.1299314E-1,9.663077E-1,3.4592322E-1,5.8643628E-2,9.016193E-1,1.615954E-1,1.0236205E0,7.596611E-1,-3.6343643E-1,-4.07921E-1,6.7417186E-1,-1.03777E0,-2.9863167E-1,-8.9987177E-1,9.822678E-2,-7.2721735E-2,-9.912466E-1,5.864757E-1,-4.8233047E-1,-8.5878766E-1,-1.2440997E-1,-2.4275812E-3,6.27529E-1,3.1685418E-1,9.8485124E-1,-1.5103894E-1,3.9747825E-1,2.4579799E-1,9.452784E-1,6.457862E-1,-3.312556E-1,1.0259033E0,9.399188E-2,5.6446534E-2,-6.107521E-1,2.6046354E-1,-8.150441E-1,3.10095E-2,9.7651297E-1,5.6456506E-1,-3.6011246E-1,-2.7647302E-1,1.0124685E0,-7.830488E-1,4.6591556E-1,9.120859E-1,-1.5371159E-1,8.788862E-1,5.312752E-2,-6.7717165E-1,1.6547726E-1,4.9650818E-1,-2.2904986E-1,9.8216397E-1,1.6506039E-1,1.3797319E-1,1.0280542E0,-9.028779E-1,-1.7099975E-1,-5.0765675E-1,2.219379E-1,-5.3621763E-1,5.090757E-1,1.8373603E-1,-8.2760763E-1,-1.81502E-1,5.0442195E-1,1.9052638E-1,6.9513226E-1,3.738888E-1,-6.399435E-1,1.0101274E0,2.8289372E-1,1.0305098E0,3.5952246E-1,1.7067939E-1,-8.729176E-1,6.917382E-1,-1.647916E-1,-1.0133009E0,-2.1188712E-1,-8.5587084E-1,3.945516E-2,6.6238487E-1,-4.573196E-1,7.3444587E-1,-1.4958456E-1,8.5296625E-1,2.2586928E-1,8.783234E-1,-4.776807E-1,-4.8549852E-1,2.4762401E-1,-5.336143E-1,3.130443E-1,-2.4876072E-1,5.18404E-1,7.3796403E-1,1.2606424E-2,-6.463712E-1,1.1946856E-1,2.2458075E-1,9.1615444E-1,-1.7908694E-1,6.237965E-1,-4.2344436E-2,-6.671012E-1,3.5839263E-1,-5.431844E-1,-1.932713E-2,7.144777E-1,1.6132155E-1,7.9599386E-1,6.0267323E-1,-4.870708E-1,5.556999E-2,-8.248139E-1,8.629064E-1,2.4739885E-1],"categories":[],"categories_nodes":[],"categories_segments":[],"categories_sizes":[],"default_left":[1,1,1,1,1,1,1,1,1,1,1,1,1,1,1,0,1,1,1,1,1,1,1,1,0,1,1,1,1,0,1,1,1,0,0,0,1,0,0,1,1,0,0,1,1,0,0,1,1,0,1,0,0,1,0,0,0,0,0,0,0,0,0,0,0,1,0,0,1,0,1,1,1,1,1,1,0,0,1,0,0,1,1,0,0,0,1,1,1,1,1,0,0,0,0,0,0,1,0,0,1,0,1,0,1,1,0,0,1,1,1,0,0,1,0,0,0,1,1,1,0,0,1,0,0,0,0,0,0,0,1,0,0,0,1,0,0,0,0,0,0],"id":8,"left_children":[1,3,5,7,9,11,13,15,17,19,21,23,25,27,29,-1,31,33,35,37,39,41,43,45,-1,47,49,51,53,-1,55,57,59,-1,-1,-1,61,-1,-1,63,65,-1,-1,67,69,-1,-1,71,73,-1,75,-1,-1,77,-1,-1,-1,-1,-1,-1,-1,-1,-1,-1,-1,79,-1,-1,81,-1,83,85,87,89,91,93,-1,-1,95,-1,-1,97,99,-1,-1,-1,101,103,105,107,109,-1,-1,-1,-1,-1,-1,111,-1,-1,113,-1,115,-1,117,119,-1,-1,121,123,125,-1,-1,127,-1,-1,-1,129,131,133,-1,-1,135,-1,-1,-1,-1,-1,-1,-1,137,-1,-1,-1,139,-1,-1,-1,-1,-1,-1],"loss_changes":[7.864107E2,2.0351044E1,2.1640259E1,3.7465515E0,8.466137E0,8.813063E0,2.0622864E0,3.6460943E0,5.678406E-1,4.039192E0,3.3833327E0,3.286934E-2,1.0061834E1,1.9228516E0,1.848936E0,0E0,2.6046784E0,3.3850098E-1,1.8947935E0,6.942253E-1,3.0252657E0,2.6064634E-1,2.0749445E0,1.8722534E-2,0E0,3.9068892E0,3.2256508E-1,1.1729887E0,6.9641113E-1,0E0,3.5085928E-1,1.640728E0,7.2183716E-1,0E0,0E0,0E0,9.5422804E-1,0E0,0E0,1.6592698E0,3.0313296E0,0E0,0E0,2.3918586E0,1.1002252E0,0E0,0E0,5.802592E0,1.4150157E0,0E0,3.5070705E-1,0E0,0E0,5.6967163E-1,0E0,0E0,0E0,0E0,0E0,0E0,0E0,0E0,0E0,0E0,0E0,3.936572E-1,0E0,0E0,2.0832045E0,0E0,1.2087284E0,1.8398337E0,2.6953092E0,9.874301E-1,1.1179941E0,4.3003082E-2,0E0,0E0,2.394104E-1,0E0,0E0,2.1150248E0,1.5467035E0,0E0,0E0,0E0,1.0744276E0,1.7734914E0,2.0445309E0,1.7064654E0,6.0693836E-1,0E0,0E0,0E0,0E0,0E0,0E0,2.0775495E0,0E0,0E0,7.991126E-1,0E0,8.217937E-1,0E0,1.474858E0,4.9432468E-1,0E0,0E0,8.980357E-1,1.0072136E-1,7.687547E-1,0E0,0E0,2.3131138E-1,0E0,0E0,0E0,1.40359E0,4.342034E-1,1.7841434E-1,0E0,0E0,1.7084138E0,0E0,0E0,0E0,0E0,0E0,0E0,0E0,8.808429E-1,0E0,0E0,0E0,8.299589E-2,0E0,0E0,0E0,0E0,0E0,0E0],"parents":[2147483647,0,0,1,1,2,2,3,3,4,4,5,5,6,6,7,7,8,8,9,9,10,10,11,11,12,12,13,13,14,14,16,16,17,17,18,18,19,19,20,20,21,21,22,22,23,23,25,25,26,26,27,27,28,28,30,30,31,31,32,32,36,36,39,39,40,40,43,43,44,44,47,47,48,48,50,50,53,53,65,65,68,68,70,70,71,71,72,72,73,73,74,74,75,75,78,78,81,81,82,82,86,86,87,87,88,88,89,89,90,90,97,97,100,100,102,102,104,104,105,105,108,108,109,109,110,110,113,113,117,117,118,118,119,119,122,122,130,130,134,134],"right_children":[2,4,6,8,10,12,14,16,18,20,22,24,26,28,30,-1,32,34,36,38,40,42,44,46,-1,48,50,52,54,-1,56,58,60,-1,-1,-1,62,-1,-1,64,66,-1,-1,68,70,-1,-1,72,74,-1,76,-1,-1,78,-1,-1,-1,-1,-1,-1,-1,-1,-1,-1,-1,80,-1,-1,82,-1,84,86,88,90,92,94,-1,-1,96,-1,-1,98,100,-1,-1,-1,102,104,106,108,110,-1,-1,-1,-1,-1,-1,112,-1,-1,114,-1,116,-1,118,120,-1,-1,122,124,126,-1,-1,128,-1,-1,-1,130,132,134,-1,-1,136,-1,-1,-1,-1,-1,-1,-1,138,-1,-1,-1,140,-1,-1,-1,-1,-1,-1],"split_conditions":[6.466947E-1,5.05531E-1,7.3046297E-1,9.1503453E-1,1.9856554E-2,8.55687E-1,1.3188268E1,5.000285E-1,9.917179E-1,3.226615E-1,8.4857464E-1,1.268E1,9.8241746E-1,6.0661763E-2,4.4071096E-1,-2.7831814E-1,1.55E1,4.451573E-1,9.164104E-2,8.6944324E-1,6.4E0,6.812231E-2,2.4025533E-2,6.6795397E-1,1.0377697E-1,3.6017996E-1,7.0244205E-1,5.375E0,6.65625E-1,2.2789833E-1,1.6353812E-2,5.3665108E1,1.1183333E1,-3.1133103E-1,-8.958951E-2,-2.6996154E-1,9.3343866E-1,-2.1816522E-2,-2.9737398E-1,1.9999999E-1,9.807795E-1,-2.576363E-1,-3.7322994E-2,4.7675003E1,8.13E0,9.505626E-2,2.954554E-1,1.8667722E-2,1.808751E-2,7.37394E-2,5.208334E-1,1.9373588E-1,-9.9376686E-2,1.552118E-1,2.8197566E-2,1.693396E-2,-1.8322563E-1,7.813907E-2,-2.4451324E-1,9.302851E-3,2.929539E-1,1.6936952E-1,-1.0803374E-1,-8.2941905E-2,3.0374056E-1,7.405E1,1.3977468E-1,2.736258E-1,5.4317796E-1,2.6366588E-1,1.0020165E-1,8.09E0,9.31274E-1,8.808283E-1,1.0549999E1,2.2311472E2,4.951812E-2,4.1391958E-2,1.4864847E2,-2.7086338E-1,-5.1299926E-2,1.14695905E-2,6.131176E1,-1.6086529E-1,1.5272272E-1,5.512081E-2,1.05E1,6.3205E1,9.7704345E-1,5.5245064E1,5.445975E-1,1.1216664E-1,-1.9198306E-1,3.0303824E-1,8.486812E-2,3.0915296E-1,1.0785674E-1,4.5E0,-2.618753E-1,2.0752147E-1,9.5E0,-3.0399027E-1,4.710957E-1,-2.5676125E-1,8.75E0,8.806981E1,-1.3719589E-1,2.2033377E-1,3.1894737E-1,7.022864E-1,6.6405E1,2.6349702E-1,-1.4330421E-1,7E0,7.4287206E-2,-1.6008429E-1,9.3913294E-2,4.45E0,4.2490974E-1,2.31845E-2,3.7819275E-3,-1.9391136E-1,1.0049999E1,6.737423E-2,2.7484635E-1,-5.3726085E-2,1.8713896E-1,-1.2703331E-2,-2.0013037E-1,1.07517794E-1,9.2496663E-1,-5.798139E-3,2.1434332E-1,4.839647E-2,5.413733E-1,1.8080197E-1,-1.4612125E-1,1.6670998E-2,-2.4744418E-1,2.5887194E-1,7.421966E-2],"split_indices":[26,26,26,21,22,20,17,26,1,3,1,11,1,2,7,0,0,6,4,20,11,4,22,26,0,3,26,14,6,0,22,19,14,0,0,0,21,0,0,6,1,0,0,8,11,0,0,22,25,0,6,0,0,3,0,0,0,0,0,0,0,0,0,0,0,8,0,0,26,0,24,15,1,1,10,23,0,0,19,0,0,25,19,0,0,0,0,8,1,19,7,0,0,0,0,0,0,0,0,0,0,0,7,0,14,19,0,0,7,26,8,0,0,9,0,0,0,9,16,4,0,0,10,0,0,0,0,0,0,0,21,0,0,0,7,0,0,0,0,0,0],"split_type":[0,0,0,0,0,0,0,0,0,0,0,0,0,0,0,0,0,0,0,0,0,0,0,0,0,0,0,0,0,0,0,0,0,0,0,0,0,0,0,0,0,0,0,0,0,0,0,0,0,0,0,0,0,0,0,0,0,0,0,0,0,0,0,0,0,0,0,0,0,0,0,0,0,0,0,0,0,0,0,0,0,0,0,0,0,0,0,0,0,0,0,0,0,0,0,0,0,0,0,0,0,0,0,0,0,0,0,0,0,0,0,0,0,0,0,0,0,0,0,0,0,0,0,0,0,0,0,0,0,0,0,0,0,0,0,0,0,0,0,0,0],"sum_hessian":[9.3791815E2,4.5877847E2,4.7913968E2,4.008695E2,5.7908974E1,9.9536064E1,3.7960364E2,1.3822229E1,3.8704727E2,3.2088383E1,2.5820591E1,2.8010895E1,7.152517E1,3.756022E2,4.001425E0,6.7049947E0,7.1172347E0,3.795038E2,7.5434637E0,2.0985136E1,1.1103247E1,3.6018867E0,2.2218704E1,2.6465775E1,1.5451192E0,5.314466E1,1.8380508E1,3.0189934E0,3.7258322E2,1.9546856E0,2.046739E0,4.249396E0,2.8678386E0,3.7790924E2,1.5945632E0,5.030237E0,2.5132267E0,1.0284458E0,1.995669E1,2.7522101E0,8.351037E0,2.6007516E0,1.001135E0,1.5274955E1,6.94375E0,1.2367827E0,2.5228992E1,3.3171333E1,1.9973328E1,1.5610636E0,1.6819445E1,1.3663476E0,1.6526458E0,3.715672E2,1.0160084E0,1.044756E0,1.0019829E0,1.7449313E0,2.5044646E0,1.2696052E0,1.5982333E0,1.1308641E0,1.3823626E0,1.0256023E0,1.7266077E0,6.4725904E0,1.8784465E0,1.4543611E0,1.3820594E1,4.4613705E0,2.4823794E0,1.2031832E1,2.1139502E1,1.7426409E1,2.5469184E0,1.5813034E1,1.0064094E0,1.0553148E0,3.705119E2,5.0154715E0,1.4571192E0,6.9349346E0,6.8856587E0,1.0060016E0,1.4763777E0,1.756792E0,1.027504E1,1.0675475E1,1.0464026E1,7.6306176E0,9.795792E0,1.0687344E0,1.4781841E0,1.4777543E1,1.035491E0,3.6861646E2,1.8954197E0,2.613692E0,4.3212423E0,2.7528274E0,4.132831E0,7.3981414E0,2.8768978E0,1.925454E0,8.750021E0,9.255161E0,1.208865E0,2.4896445E0,5.140973E0,6.718416E0,3.077375E0,1.0801225E0,1.5335697E0,2.2252233E0,1.907608E0,1.7734318E0,1.1034662E0,5.762779E0,2.9872425E0,8.169238E0,1.0859239E0,1.3134297E0,3.8275433E0,1.02996E0,5.688456E0,1.7977847E0,1.2795902E0,1.0052772E0,1.219946E0,1.810971E0,3.9518082E0,1.0390587E0,1.9481838E0,1.0925497E0,7.076688E0,2.1339157E0,1.6936277E0,1.5209334E0,2.4308748E0,5.796719E0,1.2799689E0],"tree_param":{"num_deleted":"0","num_feature":"27","num_nodes":"141","size_leaf_vector":"0"}},{"base_weights":[5.7832478E-3,-8.664772E-1,8.9003074E-1,-9.8725766E-1,-2.4517068E-1,5.297845E-1,1.0000085E0,-3.713715E-1,-1.0112845E0,-5.3137875E-1,1.5361568E-1,8.625033E-1,3.1394958E-1,1.0119867E0,1.7262827E-1,-8.824776E-1,9.450009E-2,-1.0216539E0,-4.8996353E-1,-7.9715645E-1,-9.080439E-3,-7.708327E-2,9.263125E-1,1.2799405E-1,9.0895134E-1,-4.6128458E-1,4.5298937E-1,1.02092E0,2.4585149E-1,-3.9621451E-1,5.321797E-1,-2.959807E-1,5.875195E-1,-1.0247191E0,-2.8612426E-1,-8.517549E-1,1.5385692E-1,-9.3953574E-1,-4.35693E-1,-3.0356023E-1,5.0894344E-1,-5.065437E-1,2.6131117E-1,-4.096651E-1,5.6802046E-1,9.4373745E-1,3.4272543E-1,1.2834215E-1,-7.847552E-1,2.3770276E-1,7.8246856E-1,1.1864146E-1,1.0239494E0,6.9560057E-1,-2.651815E-1,6.714319E-1,9.50116E-2,4.65244E-1,-6.203899E-1,1.005071E0,-5.7540193E-2,5.3242624E-1,-3.555302E-1,-9.7678655E-1,-3.3198234E-1,-7.427994E-1,2.6764297E-1,5.807995E-1,-5.523064E-1,7.595776E-1,-2.306557E-1,-4.4284396E-2,-8.691786E-1,2.5233015E-2,6.23414E-1,9.6274406E-1,2.0848592E-1,6.2619984E-1,-1.6502084E-1,-4.0078717E-1,4.8371089E-1,-1.0033591E-1,-9.1419536E-1,4.713586E-1,-1.6661368E-1,8.644559E-1,-2.4999489E-1,-1.3765547E-1,-7.4179757E-1,-9.207295E-1,6.783672E-2,-2.0103894E-1,6.000767E-1,-8.219036E-1,-1.3154265E-1,9.3950343E-1,1.7460081E-1,-5.992347E-1,2.7132064E-1,-6.020763E-1,2.5007594E-1,1.6316682E-1,8.773924E-1,-1.0270119E0,-2.6221815E-1,1.169262E-1,7.5012124E-1,-5.840069E-1,2.8986725E-1,9.340641E-1,1.7644508E-1,-6.153712E-1,2.6157427E-1,-3.7257558E-1,6.390549E-1,-4.713069E-1,4.4931585E-1,-3.1457368E-1,5.02837E-1,-4.690493E-2,8.9062095E-1,1.7747661E-1,-7.726403E-1,-3.3738002E-1,6.00434E-1,9.830877E-1,1.2691812E-1,1.3889405E-1,7.410595E-1,1.5241459E-1,-8.470809E-1,1.3417914E-3,6.942467E-1,9.3817145E-1,2.682905E-1,-9.593202E-1,-4.9019805E-3,1.2644795E-2,7.900296E-1,6.043115E-1,-3.3232325E-1,-3.3515948E-1,6.142488E-1],"categories":[],"categories_nodes":[],"categories_segments":[],"categories_sizes":[],"default_left":[1,1,1,1,1,1,1,1,1,1,1,1,1,1,1,0,1,1,1,1,1,1,0,1,1,1,1,1,1,0,1,1,1,0,0,0,1,1,1,1,1,1,1,0,0,1,1,1,1,1,1,0,0,0,0,0,0,0,1,0,0,0,0,0,0,1,1,0,1,1,0,1,0,1,1,0,0,0,0,0,0,0,1,1,1,1,0,0,0,0,0,0,0,0,1,0,0,0,1,0,1,0,0,0,0,1,1,1,1,1,0,0,0,0,0,0,1,1,1,0,1,0,1,0,1,0,0,1,0,1,0,0,0,0,0,0,0,0,0,0,0,0,0],"id":9,"left_children":[1,3,5,7,9,11,13,15,17,19,21,23,25,27,29,-1,31,33,35,37,39,41,-1,43,45,47,49,51,53,-1,55,57,59,-1,-1,-1,61,63,65,67,69,71,73,-1,-1,75,77,79,81,83,85,-1,-1,-1,-1,-1,-1,-1,87,-1,-1,-1,-1,-1,-1,89,91,-1,93,95,-1,97,-1,99,101,-1,-1,-1,-1,-1,-1,-1,103,105,107,109,-1,-1,-1,-1,-1,-1,-1,-1,111,-1,-1,-1,113,-1,115,-1,-1,-1,-1,117,119,121,123,125,-1,-1,-1,-1,-1,-1,127,129,131,-1,133,-1,135,-1,137,-1,-1,139,-1,141,-1,-1,-1,-1,-1,-1,-1,-1,-1,-1,-1,-1,-1],"loss_changes":[5.6046783E2,2.7209076E1,1.3766632E1,4.1517334E0,7.0289865E0,5.942625E0,2.553894E0,3.1949208E0,1.0880737E0,4.943019E0,4.743328E0,1.0255795E0,6.035109E0,1.6051025E0,1.2610593E0,0E0,1.6638801E0,3.5437012E-1,1.9136176E0,8.0639076E-1,2.1434207E0,3.199611E0,0E0,9.790307E-1,2.9339027E-1,1.7629931E0,3.10075E0,6.1032104E-1,1.205593E0,0E0,1.5371358E-1,1.5194024E0,1.0694087E0,0E0,0E0,0E0,8.835671E-1,3.9700508E-2,2.0434797E0,2.287192E0,1.1204083E0,1.577755E0,1.0497618E0,0E0,0E0,2.03619E-1,5.902358E-1,9.360351E-1,4.1931438E-1,2.8617349E0,1.7292385E0,0E0,0E0,0E0,0E0,0E0,0E0,0E0,1.2781537E-1,0E0,0E0,0E0,0E0,0E0,0E0,9.5808625E-1,6.3959134E-1,0E0,7.4143887E-1,2.6132822E-1,0E0,1.0895046E0,0E0,1.3617598E0,4.2691576E-1,0E0,0E0,0E0,0E0,0E0,0E0,0E0,7.844496E-2,1.7828293E0,2.3658967E0,6.390238E-1,0E0,0E0,0E0,0E0,0E0,0E0,0E0,0E0,9.43683E-1,0E0,0E0,0E0,1.1999077E0,0E0,1.2218877E0,0E0,0E0,0E0,0E0,1.7433658E0,1.2078009E0,1.0498159E0,1.4054534E0,4.6914673E-1,0E0,0E0,0E0,0E0,0E0,0E0,4.4216907E-1,1.3996933E0,5.18384E-1,0E0,1.1732101E-2,0E0,7.519274E-1,0E0,4.9035847E-1,0E0,0E0,1.1102697E0,0E0,1.0096886E0,0E0,0E0,0E0,0E0,0E0,0E0,0E0,0E0,0E0,0E0,0E0,0E0,0E0],"parents":[2147483647,0,0,1,1,2,2,3,3,4,4,5,5,6,6,7,7,8,8,9,9,10,10,11,11,12,12,13,13,14,14,16,16,17,17,18,18,19,19,20,20,21,21,23,23,24,24,25,25,26,26,27,27,28,28,30,30,31,31,32,32,36,36,37,37,38,38,39,39,40,40,41,41,42,42,45,45,46,46,47,47,48,48,49,49,50,50,58,58,65,65,66,66,68,68,69,69,71,71,73,73,74,74,82,82,83,83,84,84,85,85,94,94,98,98,100,100,105,105,106,106,107,107,108,108,109,109,116,116,117,117,118,118,120,120,122,122,124,124,127,127,129,129],"right_children":[2,4,6,8,10,12,14,16,18,20,22,24,26,28,30,-1,32,34,36,38,40,42,-1,44,46,48,50,52,54,-1,56,58,60,-1,-1,-1,62,64,66,68,70,72,74,-1,-1,76,78,80,82,84,86,-1,-1,-1,-1,-1,-1,-1,88,-1,-1,-1,-1,-1,-1,90,92,-1,94,96,-1,98,-1,100,102,-1,-1,-1,-1,-1,-1,-1,104,106,108,110,-1,-1,-1,-1,-1,-1,-1,-1,112,-1,-1,-1,114,-1,116,-1,-1,-1,-1,118,120,122,124,126,-1,-1,-1,-1,-1,-1,128,130,132,-1,134,-1,136,-1,138,-1,-1,140,-1,142,-1,-1,-1,-1,-1,-1,-1,-1,-1,-1,-1,-1,-1],"split_conditions":[6.975266E-1,5.063659E-1,7.307235E-1,8.5314775E-1,2.0448778E-2,9.205939E-1,9.785224E-1,5.0003326E-1,9.917179E-1,3.333103E-1,1.45E1,7.0996153E-1,2.5281346E-1,1.3188268E1,9.0527403E-1,-2.647433E-1,1.55E1,4.451573E-1,9.110968E-2,1.8879527E-2,9.4254357E-1,9.158068E-1,2.7789375E-1,1.1220723E-1,5.316073E-1,7.414005E1,9.6986085E-1,1.552118E-1,4.4071096E-1,-1.1886436E-1,6.601661E-2,8.362357E-1,1.0087307E1,-3.0741575E-1,-8.583728E-2,-2.5552648E-1,1.302E1,6.801876E-1,7.575E0,5.055E0,1.2659381E2,8.75E0,1.21E1,-1.2289954E-1,1.7040615E-1,1.5498681E-1,8.809773E-2,9.178759E-1,4.8756593E-1,1.165E1,5.208334E-1,3.559244E-2,3.0718482E-1,2.0868018E-1,-7.955445E-2,2.0142958E-1,2.8503481E-2,1.395732E-1,2.4779853E-1,3.0152133E-1,-1.7262058E-2,1.5972787E-1,-1.0665906E-1,-2.9303598E-1,-9.9594705E-2,2.981403E-1,1.13041794E2,1.7423986E-1,5.81812E-1,1.7294094E-1,-6.9196716E-2,8.428545E-1,-2.607536E-1,2.103788E-2,1.365E1,2.8882322E-1,6.254578E-2,1.8785997E-1,-4.9506254E-2,-1.2023616E-1,1.4511327E-1,-3.0100774E-2,9.468187E-1,8.183333E0,1.3299999E1,1.16213575E-1,-7.499847E-2,-4.1296642E-2,-2.2253928E-1,-2.7621886E-1,2.0351015E-2,-6.0311686E-2,1.8002301E-1,-2.4657108E-1,6.864346E-1,2.8185105E-1,5.2380245E-2,-1.7977041E-1,2.3099873E-2,-1.8062289E-1,6.5E1,4.895005E-2,2.6321775E-1,-3.0810356E-1,-7.866545E-2,1.5E0,6.1835E1,8.38794E-2,8.884887E-1,1.0000001E0,5.2933525E-2,-1.8461138E-1,7.847229E-2,-1.1177268E-1,1.9171648E-1,-1.4139207E-1,8.5E0,8.65E0,7.239395E-1,-1.4071479E-2,1.0562324E1,5.3242985E-2,1.285E1,-1.01214014E-1,3.368284E-1,2.9492632E-1,3.807544E-2,6.2013863E1,2.2231786E-1,4.95E0,-2.5412428E-1,4.0253744E-4,2.0827402E-1,2.8145143E-1,8.048715E-2,-2.8779608E-1,-1.4705942E-3,3.7934387E-3,2.3700888E-1,1.8129346E-1,-9.969698E-2,-1.0054785E-1,1.8427464E-1],"split_indices":[26,26,26,20,22,21,21,26,1,3,0,26,3,17,1,0,0,6,4,22,1,1,0,6,16,19,1,3,7,0,4,20,17,0,0,0,15,26,13,11,23,10,14,0,0,5,5,1,2,10,6,0,0,0,0,0,0,0,3,0,0,0,0,0,0,3,23,0,26,6,0,1,0,22,12,0,0,0,0,0,0,0,1,14,14,24,0,0,0,0,0,0,0,0,16,0,0,0,22,0,8,0,0,0,0,0,8,5,1,3,0,0,0,0,0,0,12,10,26,0,17,0,12,0,3,0,0,19,0,12,0,0,0,0,0,0,0,0,0,0,0,0,0],"split_type":[0,0,0,0,0,0,0,0,0,0,0,0,0,0,0,0,0,0,0,0,0,0,0,0,0,0,0,0,0,0,0,0,0,0,0,0,0,0,0,0,0,0,0,0,0,0,0,0,0,0,0,0,0,0,0,0,0,0,0,0,0,0,0,0,0,0,0,0,0,0,0,0,0,0,0,0,0,0,0,0,0,0,0,0,0,0,0,0,0,0,0,0,0,0,0,0,0,0,0,0,0,0,0,0,0,0,0,0,0,0,0,0,0,0,0,0,0,0,0,0,0,0,0,0,0,0,0,0,0,0,0,0,0,0,0,0,0,0,0,0,0,0,0],"sum_hessian":[7.246592E2,3.6481235E2,3.598468E2,3.0494318E2,5.9869198E1,8.5522865E1,2.743239E2,1.2067614E1,2.9287555E2,3.466076E1,2.5208437E1,3.2471123E1,5.3051746E1,2.7018918E2,4.1347523E0,5.328016E0,6.7395983E0,2.862227E2,6.652855E0,2.2622688E1,1.2038071E1,2.0105818E1,5.102619E0,2.1546166E0,3.0316505E1,7.715476E0,4.533627E1,2.667463E2,3.4428632E0,1.5618292E0,2.5729232E0,3.983917E0,2.755681E0,2.8464328E2,1.5794231E0,4.0525675E0,2.6002874E0,1.5082489E1,7.5402E0,7.9390063E0,4.0990644E0,8.641669E0,1.1464149E1,1.0007814E0,1.1538352E0,2.7933683E1,2.382821E0,2.9469564E0,4.7685194E0,2.8460926E1,1.6875343E1,1.0269827E0,2.6571933E2,1.6391325E0,1.8037306E0,1.5449426E0,1.0279806E0,1.0607486E0,2.9231684E0,1.3340414E0,1.4216397E0,1.4657406E0,1.1345469E0,1.3638534E1,1.4439553E0,5.2094316E0,2.3307686E0,1.4497713E0,6.489235E0,3.0413902E0,1.0576739E0,4.292296E0,4.3493733E0,7.5872297E0,3.8769193E0,2.692817E1,1.0055139E0,1.3794066E0,1.0034145E0,1.1326624E0,1.814294E0,1.0407377E0,3.7277818E0,1.7932093E1,1.0528833E1,1.5784621E1,1.0907227E0,1.0162481E0,1.9069203E0,4.1604295E0,1.0490023E0,1.1311984E0,1.1995701E0,3.3740253E0,3.1152096E0,1.8624804E0,1.1789099E0,1.2302958E0,3.0620003E0,1.5592304E0,6.0279994E0,1.962684E0,1.9142351E0,2.6875148E0,1.0402671E0,8.51947E0,9.412623E0,5.353958E0,5.1748753E0,1.4009597E1,1.7750245E0,1.143044E0,1.9721656E0,1.1082714E0,